tree
version=v4
num_class=1
num_tree_per_iteration=1
label_index=0
max_feature_idx=2
objective=quantile
feature_names=style qty booking_cons
feature_infos=[0:111] [2:10780] [0.0030000000000000001:2.319]
tree_sizes=789 807 809 809 810 809 830 831 832 832 831 833 833 833 832 832 832 827 825 827 833 834 833 830 830 831 835 837 833 832 838 833 833 835 836 835 837 839 836 851 836 852 855 855 854 856 855 856 857 856 857 856 832 855 855 855 844 844 844 844 842 843 845 843 845 844 833 833 834 833 831 831 838 839 838 833 836 834 835 852 832 840 843 841 840 836 842 841 832 844 842 842 845 843 845 842 843 843 846 842 845 848 849 837 844 844 850 854 854 853 853 854 854 854 853 850 853 858 858 854 859 859 858 855 859 859 858 859 860 860 860 860 860 860 859 858 860 857 860 860 852 850 848 841 839 839 851 851 851 846 845 846 846 846 846 846 846 844 845 845 845 845 844 845 844 844 846 842 845 844 844 844 845 844 844 845 845 845 840 840 840 841 841 841 842 839 839 838 854 846 840 852 853 855 846 846 834 847 851 854 854 853 852 849 851 851 851 851 851 851 851 850 850 851 850 848 852 850 851 851 850 851 852 850 852 854 855 852 852 847 850 854 854 853 853 851 852 854 832 850 860 849 851 854 853 851 852 846 850 850 853 851 849 853 849 857 858 843 840 859 843 839 830 848 848 846 845 846 845 845 845 848 843 843 849 838 847 849 846 845 848 838 848 848 848 848 848 846 838 850 848 846 848 848 848 839 847 846 846 846

Tree=0
num_leaves=8
num_cat=0
split_feature=1 1 1 1 0 1 0
split_gain=56.5737 46.5306 25.3004 53.6817 42.5707 27.0345 6.15561
threshold=13.000000000000002 8.5000000000000018 552.00000000000011 189.00000000000003 30.500000000000004 545.50000000000011 90.500000000000014
decision_type=2 2 2 2 2 2 2
left_child=1 -1 3 6 -5 -6 -2
right_child=2 -3 -4 4 5 -7 -8
leaf_value=1.0320421159267426 1.0270586341619492 1.0453923523426056 1.0250926733016967 1.0603702247142792 1.0322661399841309 1.0425577104091643 1.0507644534111023
leaf_weight=76 587 120 2617 123 144 37 172
leaf_count=76 587 120 2617 123 144 37 172
internal_value=1.03227 1.05788 1.03031 1.03681 1.05457 1.03914 1.0297
internal_weight=0 196 3680 1063 304 181 759
internal_count=3876 196 3680 1063 304 181 759
is_linear=0
shrinkage=1


Tree=1
num_leaves=8
num_cat=0
split_feature=1 1 1 1 0 1 0
split_gain=56.5737 46.5306 25.3004 53.6817 42.5707 27.0345 6.15561
threshold=13.000000000000002 8.5000000000000018 552.00000000000011 189.00000000000003 30.500000000000004 545.50000000000011 90.500000000000014
decision_type=2 2 2 2 2 2 2
left_child=1 -1 3 6 -5 -6 -2
right_child=2 -3 -4 4 5 -7 -8
leaf_value=-0.0002128228545188904 -0.0049471305310726191 0.012469901740550994 -0.0068147933483123759 0.0266988804936409 0 0.0097769919037818953 0.017573397755622867
leaf_weight=76 587 120 2617 123 144 37 172
leaf_count=76 587 120 2617 123 144 37 172
internal_value=0 0.0256122 -0.00195652 0.00454845 0.0223026 0.00687845 -0.00256258
internal_weight=0 196 3680 1063 304 181 759
internal_count=3876 196 3680 1063 304 181 759
is_linear=0
shrinkage=0.05


Tree=2
num_leaves=8
num_cat=0
split_feature=1 1 1 1 0 1 0
split_gain=56.5737 46.5306 25.3004 53.6817 42.5707 27.0345 6.15561
threshold=13.000000000000002 8.5000000000000018 552.00000000000011 189.00000000000003 30.500000000000004 545.50000000000011 90.500000000000014
decision_type=2 2 2 2 2 2 2
left_child=1 -1 3 6 -5 -6 -2
right_child=2 -3 -4 4 5 -7 -8
leaf_value=-0.0002021817117929481 -0.0046997740045189862 0.011846406653523446 -0.0064740536808967526 0.025363936468958848 0 0.0092881423085928068 0.016694727867841718
leaf_weight=76 587 120 2617 123 144 37 172
leaf_count=76 587 120 2617 123 144 37 172
internal_value=0 0.0256122 -0.00195652 0.00454845 0.0223026 0.00687845 -0.00256258
internal_weight=0 196 3680 1063 304 181 759
internal_count=3876 196 3680 1063 304 181 759
is_linear=0
shrinkage=0.05


Tree=3
num_leaves=8
num_cat=0
split_feature=1 1 1 1 1 0 0
split_gain=54.8583 46.5306 30.0025 32.6835 30.2502 35.0407 19.8894
threshold=13.000000000000002 8.5000000000000018 703.50000000000011 189.00000000000003 237.50000000000003 108.50000000000001 46.500000000000007
decision_type=2 2 2 2 2 2 2
left_child=1 -1 3 -2 5 -5 -6
right_child=2 -3 -4 4 6 -7 -8
leaf_value=-0.00019207262620329901 -0.0044647853042930402 0.011254086320847269 -0.0079517195910215333 0.024095739645510907 0 -0.043699175119400024 0.0088237351931631635
leaf_weight=76 759 120 2316 123 225 49 208
leaf_count=76 759 120 2316 123 225 49 208
internal_value=0 0.0256122 -0.00153533 0.00434751 0.0130165 0.0307558 0.00596998
internal_weight=0 196 3680 1364 605 172 433
internal_count=3876 196 3680 1364 605 172 433
is_linear=0
shrinkage=0.05


Tree=4
num_leaves=8
num_cat=0
split_feature=1 1 1 1 0 1 0
split_gain=56.5737 46.5306 25.3004 53.6817 42.5707 27.0345 6.15561
threshold=13.000000000000002 8.5000000000000018 552.00000000000011 189.00000000000003 30.500000000000004 545.50000000000011 90.500000000000014
decision_type=2 2 2 2 2 2 2
left_child=1 -1 3 6 -5 -6 -2
right_child=2 -3 -4 4 5 -7 -8
leaf_value=-0.00018246899489313684 -0.0042415460390783921 0.010691382004804906 -0.0060087967689335334 0.022890952663235365 0 0.0083825484335049993 0.016083230739664278
leaf_weight=76 587 120 2617 123 144 37 172
leaf_count=76 587 120 2617 123 144 37 172
internal_value=0 0.0256122 -0.00195652 0.00454845 0.0223026 0.00687845 -0.00256258
internal_weight=0 196 3680 1063 304 181 759
internal_count=3876 196 3680 1063 304 181 759
is_linear=0
shrinkage=0.05


Tree=5
num_leaves=8
num_cat=0
split_feature=1 1 1 1 0 1 0
split_gain=56.5737 46.5306 25.3004 53.6817 42.5707 27.0345 6.15561
threshold=13.000000000000002 8.5000000000000018 552.00000000000011 189.00000000000003 30.500000000000004 545.50000000000011 90.500000000000014
decision_type=2 2 2 2 2 2 2
left_child=1 -1 3 6 -5 -6 -2
right_child=2 -3 -4 4 5 -7 -8
leaf_value=-0.00017334554514848445 -0.0040294687371244756 0.01015681290456466 -0.0057083569304868581 0.021746405030073603 0 0.0079634210118297525 0.015279069202681062
leaf_weight=76 587 120 2617 123 144 37 172
leaf_count=76 587 120 2617 123 144 37 172
internal_value=0 0.0256122 -0.00195652 0.00454845 0.0223026 0.00687845 -0.00256258
internal_weight=0 196 3680 1063 304 181 759
internal_count=3876 196 3680 1063 304 181 759
is_linear=0
shrinkage=0.05


Tree=6
num_leaves=8
num_cat=0
split_feature=1 1 2 1 1 1 1
split_gain=70.0643 49.9282 35.3438 27.0426 42.4186 17.3914 34.3029
threshold=818.00000000000011 773.00000000000011 1.3745000000000003 13.000000000000002 8.5000000000000018 189.00000000000003 237.50000000000003
decision_type=2 2 2 2 2 2 2
left_child=1 2 3 4 -1 -5 -7
right_child=-2 -3 -4 5 -6 6 -8
leaf_value=-0.00016467826789106079 -0.01074017705717571 1.7740108580516224e-05 0.020659084778569925 -0.0038279953002682502 0.0096489722593364313 0.020659084778569925 0.00021681238489709156
leaf_weight=76 2162 89 141 733 96 111 468
leaf_count=76 2162 89 141 733 96 111 468
internal_value=0 0.00853559 0.00653846 0.0042655 0.022907 0.00182165 0.00829879
internal_weight=0 1714 1625 1484 172 1312 579
internal_count=3876 1714 1625 1484 172 1312 579
is_linear=0
shrinkage=0.05


Tree=7
num_leaves=8
num_cat=0
split_feature=1 1 2 1 1 1 1
split_gain=70.0643 49.9282 35.3438 27.0426 42.4186 17.3914 34.3029
threshold=818.00000000000011 773.00000000000011 1.3745000000000003 13.000000000000002 8.5000000000000018 189.00000000000003 237.50000000000003
decision_type=2 2 2 2 2 2 2
left_child=1 2 3 4 -1 -5 -7
right_child=-2 -3 -4 5 -6 6 -8
leaf_value=-0.00015644435449650997 -0.010203168204316927 1.6853103151492911e-05 0.019626130539641431 -0.0036365955352548386 0.0091665236463696065 0.019626130539641431 0.00020597176565223529
leaf_weight=76 2162 89 141 733 96 111 468
leaf_count=76 2162 89 141 733 96 111 468
internal_value=0 0.00853559 0.00653846 0.0042655 0.022907 0.00182165 0.00829879
internal_weight=0 1714 1625 1484 172 1312 579
internal_count=3876 1714 1625 1484 172 1312 579
is_linear=0
shrinkage=0.05


Tree=8
num_leaves=8
num_cat=0
split_feature=1 1 2 1 1 1 1
split_gain=70.0643 49.9282 35.3438 27.0426 42.4186 17.3914 34.3029
threshold=818.00000000000011 773.00000000000011 1.3745000000000003 13.000000000000002 8.5000000000000018 189.00000000000003 237.50000000000003
decision_type=2 2 2 2 2 2 2
left_child=1 2 3 4 -1 -5 -7
right_child=-2 -3 -4 5 -6 6 -8
leaf_value=-0.00014862213677168114 -0.0096930097941010825 1.6010447993919374e-05 0.018644824012659357 -0.0034547657584920958 0.0087081974640511265 0.018644824012659357 0.00019567317736962631
leaf_weight=76 2162 89 141 733 96 111 468
leaf_count=76 2162 89 141 733 96 111 468
internal_value=0 0.00853559 0.00653846 0.0042655 0.022907 0.00182165 0.00829879
internal_weight=0 1714 1625 1484 172 1312 579
internal_count=3876 1714 1625 1484 172 1312 579
is_linear=0
shrinkage=0.05


Tree=9
num_leaves=8
num_cat=0
split_feature=1 1 2 1 1 1 1
split_gain=70.0643 49.9282 35.3438 27.0426 42.4186 17.3914 34.3029
threshold=818.00000000000011 773.00000000000011 1.3745000000000003 13.000000000000002 8.5000000000000018 189.00000000000003 237.50000000000003
decision_type=2 2 2 2 2 2 2
left_child=1 2 3 4 -1 -5 -7
right_child=-2 -3 -4 5 -6 6 -8
leaf_value=-0.00014119102993309651 -0.0092083593043960302 1.5209925594222852e-05 0.017712582812026392 -0.0032820274705674893 0.0082727875908485734 0.017712582812026392 0.00018588951850114779
leaf_weight=76 2162 89 141 733 96 111 468
leaf_count=76 2162 89 141 733 96 111 468
internal_value=0 0.00853559 0.00653846 0.0042655 0.022907 0.00182165 0.00829879
internal_weight=0 1714 1625 1484 172 1312 579
internal_count=3876 1714 1625 1484 172 1312 579
is_linear=0
shrinkage=0.05


Tree=10
num_leaves=8
num_cat=0
split_feature=1 1 2 1 1 1 1
split_gain=70.0643 49.9282 35.3438 27.0426 42.4186 17.3914 34.3029
threshold=818.00000000000011 773.00000000000011 1.3745000000000003 13.000000000000002 8.5000000000000018 189.00000000000003 237.50000000000003
decision_type=2 2 2 2 2 2 2
left_child=1 2 3 4 -1 -5 -7
right_child=-2 -3 -4 5 -6 6 -8
leaf_value=-0.00013413147843643891 -0.0087479413391762292 1.4449429314511431e-05 0.01682695367142507 -0.0031179260970391146 0.0078591482113061443 0.01682695367142507 0.00017659504257608872
leaf_weight=76 2162 89 141 733 96 111 468
leaf_count=76 2162 89 141 733 96 111 468
internal_value=0 0.00853559 0.00653846 0.0042655 0.022907 0.00182165 0.00829879
internal_weight=0 1714 1625 1484 172 1312 579
internal_count=3876 1714 1625 1484 172 1312 579
is_linear=0
shrinkage=0.05


Tree=11
num_leaves=8
num_cat=0
split_feature=1 1 2 1 1 1 1
split_gain=69.4616 50.0881 33.4559 27.0426 42.4186 17.3914 34.3029
threshold=818.00000000000011 773.00000000000011 1.3745000000000003 13.000000000000002 8.5000000000000018 189.00000000000003 237.50000000000003
decision_type=2 2 2 2 2 2 2
left_child=1 2 3 4 -1 -5 -7
right_child=-2 -3 -4 5 -6 6 -8
leaf_value=-0.00012742490451461697 -0.0083105442722174183 1.3726957848786415e-05 0.015985605987853813 -0.0029620297921871598 0.0074661908007408358 0.015985605987853813 0.00016776529044728596
leaf_weight=76 2162 89 141 733 96 111 468
leaf_count=76 2162 89 141 733 96 111 468
internal_value=0 0.00847725 0.00647692 0.0042655 0.022907 0.00182165 0.00829879
internal_weight=0 1714 1625 1484 172 1312 579
internal_count=3876 1714 1625 1484 172 1312 579
is_linear=0
shrinkage=0.05


Tree=12
num_leaves=8
num_cat=0
split_feature=1 1 2 1 1 1 1
split_gain=69.4616 50.0881 33.4559 27.0426 42.4186 17.3914 34.3029
threshold=818.00000000000011 773.00000000000011 1.3745000000000003 13.000000000000002 8.5000000000000018 189.00000000000003 237.50000000000003
decision_type=2 2 2 2 2 2 2
left_child=1 2 3 4 -1 -5 -7
right_child=-2 -3 -4 5 -6 6 -8
leaf_value=-0.00012105365928888334 -0.0078950170586065457 1.3040609956349593e-05 0.015186325688461122 -0.0028139283025778008 0.0070928812607037985 0.015186325688461122 0.00015937702592492276
leaf_weight=76 2162 89 141 733 96 111 468
leaf_count=76 2162 89 141 733 96 111 468
internal_value=0 0.00847725 0.00647692 0.0042655 0.022907 0.00182165 0.00829879
internal_weight=0 1714 1625 1484 172 1312 579
internal_count=3876 1714 1625 1484 172 1312 579
is_linear=0
shrinkage=0.05


Tree=13
num_leaves=8
num_cat=0
split_feature=1 1 2 1 1 1 1
split_gain=69.4616 50.0881 33.4559 27.0426 42.4186 17.3914 34.3029
threshold=818.00000000000011 773.00000000000011 1.3745000000000003 13.000000000000002 8.5000000000000018 189.00000000000003 237.50000000000003
decision_type=2 2 2 2 2 2 2
left_child=1 2 3 4 -1 -5 -7
right_child=-2 -3 -4 5 -6 6 -8
leaf_value=-0.00011500097632444195 -0.0075002662056762211 1.2388579458533223e-05 0.014427009404038071 -0.0026732318874489128 0.0067382371976686065 0.014427009404038071 0.00015140817462867552
leaf_weight=76 2162 89 141 733 96 111 468
leaf_count=76 2162 89 141 733 96 111 468
internal_value=0 0.00847725 0.00647692 0.0042655 0.022907 0.00182165 0.00829879
internal_weight=0 1714 1625 1484 172 1312 579
internal_count=3876 1714 1625 1484 172 1312 579
is_linear=0
shrinkage=0.05


Tree=14
num_leaves=8
num_cat=0
split_feature=1 1 2 1 1 1 1
split_gain=69.4616 50.0881 33.4559 27.0426 42.4186 17.3914 34.3029
threshold=818.00000000000011 773.00000000000011 1.3745000000000003 13.000000000000002 8.5000000000000018 189.00000000000003 237.50000000000003
decision_type=2 2 2 2 2 2 2
left_child=1 2 3 4 -1 -5 -7
right_child=-2 -3 -4 5 -6 6 -8
leaf_value=-0.00010925092750821986 -0.007125252895392409 1.1769150485607672e-05 0.013705658933836174 -0.0025395702930764655 0.0064013253377851803 0.013705658933836174 0.00014383776589723673
leaf_weight=76 2162 89 141 733 96 111 468
leaf_count=76 2162 89 141 733 96 111 468
internal_value=0 0.00847725 0.00647692 0.0042655 0.022907 0.00182165 0.00829879
internal_weight=0 1714 1625 1484 172 1312 579
internal_count=3876 1714 1625 1484 172 1312 579
is_linear=0
shrinkage=0.05


Tree=15
num_leaves=8
num_cat=0
split_feature=1 1 1 1 1 1 0
split_gain=63.5778 51.7011 33.0043 44.9925 21.6712 40.7411 35.0407
threshold=818.00000000000011 773.00000000000011 13.000000000000002 8.5000000000000018 189.00000000000003 237.50000000000003 108.50000000000001
decision_type=2 2 2 2 2 2 2
left_child=1 2 3 -1 -4 6 -6
right_child=-2 -3 4 -5 5 -7 -8
leaf_value=-0.00010378838113280776 -0.0067689902506227863 1.1180692961326733e-05 -0.0024125917784226405 0.0060812590708959171 0.013020375987144362 0.00013664587760237046 -0.049152925154855587
leaf_weight=76 2162 89 759 120 123 498 49
leaf_count=76 2162 89 759 120 123 498 49
internal_value=0 0.00789381 0.00586154 0.025102 0.00322253 0.00977612 0.0307558
internal_weight=0 1714 1625 196 1429 670 172
internal_count=3876 1714 1625 196 1429 670 172
is_linear=0
shrinkage=0.05


Tree=16
num_leaves=8
num_cat=0
split_feature=1 1 1 1 1 1 0
split_gain=63.5778 51.7011 33.0043 44.9925 21.6712 40.7411 35.0407
threshold=818.00000000000011 773.00000000000011 13.000000000000002 8.5000000000000018 189.00000000000003 237.50000000000003 108.50000000000001
decision_type=2 2 2 2 2 2 2
left_child=1 2 3 -1 -4 6 -6
right_child=-2 -3 4 -5 5 -7 -8
leaf_value=-9.8598962076168481e-05 -0.0064305407380916453 1.0621658313259008e-05 -0.0022919621895015063 0.0057771961173511245 0.012369357187787144 0.00012981358372224916 -0.046695278897112807
leaf_weight=76 2162 89 759 120 123 498 49
leaf_count=76 2162 89 759 120 123 498 49
internal_value=0 0.00789381 0.00586154 0.025102 0.00322253 0.00977612 0.0307558
internal_weight=0 1714 1625 196 1429 670 172
internal_count=3876 1714 1625 196 1429 670 172
is_linear=0
shrinkage=0.05


Tree=17
num_leaves=8
num_cat=0
split_feature=1 1 2 0 1 1 0
split_gain=38.6821 58.3226 25.7211 16.631 13.9931 37.1635 19.9099
threshold=818.00000000000011 773.00000000000011 1.1395000000000002 30.500000000000004 189.00000000000003 237.50000000000003 108.50000000000001
decision_type=2 2 2 2 2 2 2
left_child=1 2 4 -4 -1 6 -6
right_child=-2 -3 3 -5 5 -7 -8
leaf_value=-0.00024952269921284519 -0.0061090137011870606 1.0090575397597724e-05 0.011750889328397785 0.0064100510408393839 0.011750889328397785 0.00012332290453613838 -0.044360514952257159
leaf_weight=902 2162 89 70 124 85 418 26
leaf_count=902 2162 89 70 124 85 418 26
internal_value=0 0.00558926 0.00343077 0.0205155 0.0011146 0.00757089 0.0332883
internal_weight=0 1714 1625 194 1431 529 111
internal_count=3876 1714 1625 194 1431 529 111
is_linear=0
shrinkage=0.05


Tree=18
num_leaves=8
num_cat=0
split_feature=1 1 2 0 1 1 0
split_gain=36.9077 59.0153 23.4739 19.8125 14.0113 37.1507 19.9099
threshold=818.00000000000011 773.00000000000011 1.2075000000000002 30.500000000000004 189.00000000000003 237.50000000000003 108.50000000000001
decision_type=2 2 2 2 2 2 2
left_child=1 2 4 -4 -1 6 -6
right_child=-2 -3 3 -5 5 -7 -8
leaf_value=-0.00023704656425220795 -0.0058035630161277054 9.5860466277186702e-06 0.011163344861977897 0.0067911320974756717 0.011163344861977897 0.00011715675930933367 -0.0421424892046443
leaf_weight=904 2162 89 67 98 85 445 26
leaf_count=904 2162 89 67 98 85 445 26
internal_value=0 0.00535589 0.00318461 0.0210606 0.00116438 0.00741007 0.0332883
internal_weight=0 1714 1625 165 1460 556 111
internal_count=3876 1714 1625 165 1460 556 111
is_linear=0
shrinkage=0.05


Tree=19
num_leaves=8
num_cat=0
split_feature=1 1 2 0 1 1 0
split_gain=36.9077 59.0153 23.4739 19.8125 14.0113 37.1507 19.9099
threshold=818.00000000000011 773.00000000000011 1.2075000000000002 30.500000000000004 189.00000000000003 237.50000000000003 108.50000000000001
decision_type=2 2 2 2 2 2 2
left_child=1 2 4 -4 -1 6 -6
right_child=-2 -3 3 -5 5 -7 -8
leaf_value=-0.00022519423603959421 -0.0055133848653213195 9.1067442963332915e-06 0.010605177618879004 0.0064515754926018909 0.010605177618879004 0.00011129892134387198 -0.040035364744412084
leaf_weight=904 2162 89 67 98 85 445 26
leaf_count=904 2162 89 67 98 85 445 26
internal_value=0 0.00535589 0.00318461 0.0210606 0.00116438 0.00741007 0.0332883
internal_weight=0 1714 1625 165 1460 556 111
internal_count=3876 1714 1625 165 1460 556 111
is_linear=0
shrinkage=0.05


Tree=20
num_leaves=8
num_cat=0
split_feature=1 1 0 1 1 0 2
split_gain=38.6485 50.6957 49.5475 20.2965 43.0928 35.0407 8.58937
threshold=906.00000000000011 773.00000000000011 64.500000000000014 189.00000000000003 237.50000000000003 108.50000000000001 0.070000000000000021
decision_type=2 2 2 2 2 2 2
left_child=1 3 -3 -1 5 -5 -6
right_child=-2 2 -4 4 6 -7 -8
leaf_value=-5.8080838997132124e-05 -0.0067053250275728345 7.9522351157940157e-05 -0.0007205776177522772 0.010074918737935057 0.0074541715516178502 -0.038033596507191486 -0.00011107840962041316
leaf_weight=955 2030 146 75 123 93 49 405
leaf_count=955 2030 146 75 123 93 49 405
internal_value=0 0.00556338 0.0280317 0.00250769 0.0091791 0.0307558 0.00172691
internal_weight=0 1846 221 1625 670 172 498
internal_count=3876 1846 221 1625 670 172 498
is_linear=0
shrinkage=0.05


Tree=21
num_leaves=8
num_cat=0
split_feature=1 1 0 1 1 0 0
split_gain=35.5709 52.5457 49.5475 16.491 47.6801 35.0407 4.56796
threshold=906.00000000000011 773.00000000000011 64.500000000000014 189.00000000000003 237.50000000000003 108.50000000000001 46.500000000000007
decision_type=2 2 2 2 2 2 2
left_child=1 3 -3 -1 5 -5 -6
right_child=-2 2 -4 4 6 -7 -8
leaf_value=-5.5176797047273853e-05 -0.0063700587761941936 7.5546233600043427e-05 -0.00068454873686466531 0.0095711728010383079 -0.00010552448913939694 -0.036131916681831903 0.0044466740650838891
leaf_weight=955 2030 146 75 123 257 49 241
leaf_count=955 2030 146 75 123 257 49 241
internal_value=0 0.0051571 0.0280317 0.00204615 0.0080597 0.0307558 0.000220882
internal_weight=0 1846 221 1625 670 172 498
internal_count=3876 1846 221 1625 670 172 498
is_linear=0
shrinkage=0.05


Tree=22
num_leaves=8
num_cat=0
split_feature=1 1 0 1 1 0 0
split_gain=33.9817 53.5459 49.5475 14.6228 50.2215 35.0407 3.12257
threshold=906.00000000000011 773.00000000000011 64.500000000000014 189.00000000000003 237.50000000000003 108.50000000000001 46.500000000000007
decision_type=2 2 2 2 2 2 2
left_child=1 3 -3 -1 5 -5 -6
right_child=-2 2 -4 4 6 -7 -8
leaf_value=-5.2417957194905718e-05 -0.0060515558373844813 7.1768921920040141e-05 -0.00065032130002143362 0.0090926141609863897 -0.00010024826468242322 -0.034325320847740308 0.004224340361829693
leaf_weight=955 2030 146 75 123 257 49 241
leaf_count=955 2030 146 75 123 257 49 241
internal_value=0 0.00494041 0.0280317 0.0018 0.00746269 0.0307558 -0.000582331
internal_weight=0 1846 221 1625 670 172 498
internal_count=3876 1846 221 1625 670 172 498
is_linear=0
shrinkage=0.05


Tree=23
num_leaves=8
num_cat=0
split_feature=1 0 0 1 1 0 1
split_gain=18.9225 17.9443 41.4038 18.0224 76.6501 21.62 6.41713
threshold=1119.0000000000002 54.500000000000007 46.500000000000007 291.00000000000006 189.00000000000003 4.5000000000000009 13.000000000000002
decision_type=2 2 2 2 2 2 2
left_child=1 2 3 4 6 -5 -1
right_child=-2 -3 -4 5 -6 -7 -8
leaf_value=0.005532208266120775 -0.017590459969572265 -0.00020565074457563616 0.0010855550410984072 0.0019914182156999527 0.0086379834529370699 -2.6904682523865023e-06 -0.013732657326576371
leaf_weight=39 1734 1178 67 23 123 460 252
leaf_count=39 1734 1178 67 23 123 460 252
internal_value=0 0.00202614 0.00708506 0.00425306 0.0119082 -0.00230849 -0.00207904
internal_weight=0 2142 964 897 414 483 291
internal_count=3876 2142 964 897 414 483 291
is_linear=0
shrinkage=0.05


Tree=24
num_leaves=8
num_cat=0
split_feature=1 0 0 1 1 0 1
split_gain=18.9225 17.9443 41.4038 18.0224 76.6501 21.62 6.41713
threshold=1119.0000000000002 54.500000000000007 46.500000000000007 291.00000000000006 189.00000000000003 4.5000000000000009 13.000000000000002
decision_type=2 2 2 2 2 2 2
left_child=1 2 3 4 6 -5 -1
right_child=-2 -3 -4 5 -6 -7 -8
leaf_value=0.005255597852814731 -0.016710936971093649 -0.00019536820734685769 0.0010312772890434863 0.0018918473049149565 0.0082060842802902153 -2.5559448397660668e-06 -0.013046024460247552
leaf_weight=39 1734 1178 67 23 123 460 252
leaf_count=39 1734 1178 67 23 123 460 252
internal_value=0 0.00202614 0.00708506 0.00425306 0.0119082 -0.00230849 -0.00207904
internal_weight=0 2142 964 897 414 483 291
internal_count=3876 2142 964 897 414 483 291
is_linear=0
shrinkage=0.05


Tree=25
num_leaves=8
num_cat=0
split_feature=1 1 0 2 1 1 1
split_gain=17.1509 41.4006 55.8042 6.21582 8.14891 2.92201 23.8076
threshold=552.00000000000011 189.00000000000003 30.500000000000004 0.081500000000000017 545.50000000000011 28.000000000000004 24.000000000000004
decision_type=2 2 2 2 2 2 2
left_child=1 5 -3 4 -4 6 -1
right_child=-2 2 3 -5 -6 -7 -8
leaf_value=-2.9746111739048511e-05 -0.00071256444837985988 0.0077957800662757041 -0.00047323602885560593 -9.4973530793696092e-05 0.0066679632002873968 -0.013374031964888157 0.016229669865022122
leaf_weight=441 2617 123 23 141 17 467 47
leaf_count=441 2617 123 23 141 17 467 47
internal_value=0 0.00294281 0.0190132 0.00135359 0.01875 -0.00217278 0.000532786
internal_weight=0 1259 304 181 40 955 488
internal_count=3876 1259 304 181 40 955 488
is_linear=0
shrinkage=0.05


Tree=26
num_leaves=8
num_cat=0
split_feature=1 1 1 1 0 0 0
split_gain=27.7032 62.9883 14.6228 50.2215 35.0407 3.12257 8.44691
threshold=818.00000000000011 773.00000000000011 189.00000000000003 237.50000000000003 108.50000000000001 46.500000000000007 85.500000000000014
decision_type=2 2 2 2 2 2 2
left_child=1 2 -1 4 -4 -5 -7
right_child=-2 -3 3 5 -6 6 -8
leaf_value=-2.8258806152092752e-05 -0.0025306705705453905 3.3200074821215786e-05 0.0074059910629619141 -9.0224854254006287e-05 -0.032565342056314388 0.0063345650402730326 -0.00058731287117200855
leaf_weight=955 2162 89 123 257 49 109 132
leaf_count=955 2162 89 123 257 49 109 132
internal_value=0 0.00404317 0.0018 0.00746269 0.0307558 -0.000582331 0.00350622
internal_weight=0 1714 1625 670 172 498 241
internal_count=3876 1714 1625 670 172 498 241
is_linear=0
shrinkage=0.05


Tree=27
num_leaves=8
num_cat=0
split_feature=1 1 0 1 1 1 1
split_gain=26.0621 59.0836 49.5475 9.88933 57.2855 3.19031 23.8076
threshold=906.00000000000011 773.00000000000011 64.500000000000014 234.50000000000003 237.50000000000003 28.000000000000004 24.000000000000004
decision_type=2 2 2 2 2 2 2
left_child=1 3 -3 5 -5 6 -1
right_child=-2 2 -4 4 -6 -7 -8
leaf_value=-2.6845865844493669e-05 -0.0055667653469728684 0.0001245006102632007 -0.00043559253647797451 0.0070356915098138241 -8.5713611541304857e-05 -0.011723608698683163 0.015419599312078614
leaf_weight=441 2030 146 75 80 498 559 47
leaf_count=441 2030 146 75 80 498 559 47
internal_value=0 0.00377573 0.0280317 0.000476922 0.00572664 -0.0024212 0.000532786
internal_weight=0 1846 221 1625 578 1047 488
internal_count=3876 1846 221 1625 578 1047 488
is_linear=0
shrinkage=0.05


Tree=28
num_leaves=8
num_cat=0
split_feature=1 1 0 1 1 0 0
split_gain=33.9817 53.5459 49.5475 14.6228 50.2215 35.0407 3.12257
threshold=906.00000000000011 773.00000000000011 64.500000000000014 189.00000000000003 237.50000000000003 108.50000000000001 46.500000000000007
decision_type=2 2 2 2 2 2 2
left_child=1 3 -3 -1 5 -5 -6
right_child=-2 2 -4 4 6 -7 -8
leaf_value=-2.5503572552265652e-05 -0.0052884270796242257 0.0001182755797500379 -0.00041381290965407662 0.0066839069343231361 -8.1427930964239622e-05 -0.030350894518564511 0.0037563599423167341
leaf_weight=955 2030 146 75 123 257 49 241
leaf_count=955 2030 146 75 123 257 49 241
internal_value=0 0.00494041 0.0280317 0.0018 0.00746269 0.0307558 -0.000582331
internal_weight=0 1846 221 1625 670 172 498
internal_count=3876 1846 221 1625 670 172 498
is_linear=0
shrinkage=0.05


Tree=29
num_leaves=8
num_cat=0
split_feature=1 1 0 1 1 0 0
split_gain=33.9817 53.5459 49.5475 14.6228 50.2215 35.0407 3.12257
threshold=906.00000000000011 773.00000000000011 64.500000000000014 189.00000000000003 237.50000000000003 108.50000000000001 46.500000000000007
decision_type=2 2 2 2 2 2 2
left_child=1 3 -3 -1 5 -5 -6
right_child=-2 2 -4 4 6 -7 -8
leaf_value=-2.4228393924652371e-05 -0.005024005725643016 0.00011236180076253377 -0.00039312226417137497 0.006349711587606977 -7.7356534416028747e-05 -0.028833349792636284 0.0035685419452008982
leaf_weight=955 2030 146 75 123 257 49 241
leaf_count=955 2030 146 75 123 257 49 241
internal_value=0 0.00494041 0.0280317 0.0018 0.00746269 0.0307558 -0.000582331
internal_weight=0 1846 221 1625 670 172 498
internal_count=3876 1846 221 1625 670 172 498
is_linear=0
shrinkage=0.05


Tree=30
num_leaves=8
num_cat=0
split_feature=1 1 0 1 1 1 1
split_gain=26.0621 59.0836 49.5475 9.88933 57.2855 3.19031 23.8076
threshold=906.00000000000011 773.00000000000011 64.500000000000014 234.50000000000003 237.50000000000003 28.000000000000004 24.000000000000004
decision_type=2 2 2 2 2 2 2
left_child=1 3 -3 5 -5 6 -1
right_child=-2 2 -4 4 -6 -7 -8
leaf_value=-2.3016974228418086e-05 -0.0047728054393608669 0.00010674371072440514 -0.00037346615096280902 0.0060322260082266268 -7.3488707695223981e-05 -0.011134941665425158 0.014651105944798527
leaf_weight=441 2030 146 75 80 498 559 47
leaf_count=441 2030 146 75 80 498 559 47
internal_value=0 0.00377573 0.0280317 0.000476922 0.00572664 -0.0024212 0.000532786
internal_weight=0 1846 221 1625 578 1047 488
internal_count=3876 1846 221 1625 578 1047 488
is_linear=0
shrinkage=0.05


Tree=31
num_leaves=8
num_cat=0
split_feature=1 1 0 1 1 0 0
split_gain=33.9817 53.5459 49.5475 14.6228 50.2215 35.0407 3.12257
threshold=906.00000000000011 773.00000000000011 64.500000000000014 189.00000000000003 237.50000000000003 108.50000000000001 46.500000000000007
decision_type=2 2 2 2 2 2 2
left_child=1 3 -3 -1 5 -5 -6
right_child=-2 2 -4 4 6 -7 -8
leaf_value=-2.1866125517000514e-05 -0.0045341651673928233 0.00010140652518818572 -0.00035479284341466969 0.0057306147078152962 -6.981427231046444e-05 -0.026834935219733208 0.0033937892833256103
leaf_weight=955 2030 146 75 123 257 49 241
leaf_count=955 2030 146 75 123 257 49 241
internal_value=0 0.00494041 0.0280317 0.0018 0.00746269 0.0307558 -0.000582331
internal_weight=0 1846 221 1625 670 172 498
internal_count=3876 1846 221 1625 670 172 498
is_linear=0
shrinkage=0.05


Tree=32
num_leaves=8
num_cat=0
split_feature=1 1 0 1 1 0 0
split_gain=33.9817 53.5459 49.5475 14.6228 50.2215 35.0407 3.12257
threshold=906.00000000000011 773.00000000000011 64.500000000000014 189.00000000000003 237.50000000000003 108.50000000000001 46.500000000000007
decision_type=2 2 2 2 2 2 2
left_child=1 3 -3 -1 5 -5 -6
right_child=-2 2 -4 4 6 -7 -8
leaf_value=-2.0772819241154929e-05 -0.0043074569090231834 9.6336198928775884e-05 -0.00033705320124393647 0.0054440839724245295 -6.632355869493623e-05 -0.025493188458746548 0.0032240998191593317
leaf_weight=955 2030 146 75 123 257 49 241
leaf_count=955 2030 146 75 123 257 49 241
internal_value=0 0.00494041 0.0280317 0.0018 0.00746269 0.0307558 -0.000582331
internal_weight=0 1846 221 1625 670 172 498
internal_count=3876 1846 221 1625 670 172 498
is_linear=0
shrinkage=0.05


Tree=33
num_leaves=8
num_cat=0
split_feature=1 0 0 0 1 1 1
split_gain=13.9023 17.9862 7.50109 48.804 11.305 58.1382 6.54499
threshold=1119.0000000000002 4.5000000000000009 54.500000000000007 46.500000000000007 291.00000000000006 234.50000000000003 13.000000000000002
decision_type=2 2 2 2 2 2 2
left_child=1 -1 3 4 5 6 -3
right_child=-2 2 -4 -5 -6 -7 -8
leaf_value=0.0034340979740163148 -0.014238547088191861 0.0050028298936339423 -0.00017558786351956623 9.1519388982336253e-05 -1.4411502007039001e-06 0.0051718797738033008 -0.0001458257627533266
leaf_weight=23 1734 39 1178 67 460 80 295
leaf_count=23 1734 39 1178 67 460 80 295
internal_value=0 0.00102241 0.000545067 0.00387354 0.000720823 0.00671497 -0.00245509
internal_weight=0 2142 2119 941 874 414 334
internal_count=3876 2142 2119 941 874 414 334
is_linear=0
shrinkage=0.05


Tree=34
num_leaves=8
num_cat=0
split_feature=1 0 0 0 1 1 1
split_gain=13.9023 17.9862 7.50109 48.804 11.305 58.1382 6.54499
threshold=1119.0000000000002 4.5000000000000009 54.500000000000007 46.500000000000007 291.00000000000006 234.50000000000003 13.000000000000002
decision_type=2 2 2 2 2 2 2
left_child=1 -1 3 4 5 6 -3
right_child=-2 2 -4 -5 -6 -7 -8
leaf_value=0.0032623930753155009 -0.013526619733782269 0.0047526883989522433 -0.00016680847034358239 8.6943419533219712e-05 -1.3690926906673174e-06 0.0049132857851131306 -0.00013853447461565916
leaf_weight=23 1734 39 1178 67 460 80 295
leaf_count=23 1734 39 1178 67 460 80 295
internal_value=0 0.00102241 0.000545067 0.00387354 0.000720823 0.00671497 -0.00245509
internal_weight=0 2142 2119 941 874 414 334
internal_count=3876 2142 2119 941 874 414 334
is_linear=0
shrinkage=0.05


Tree=35
num_leaves=8
num_cat=0
split_feature=0 0 1 1 2 1 2
split_gain=17.3138 123.926 13.3135 58.1382 10.5873 6.54499 9.58974
threshold=52.500000000000007 49.500000000000007 291.00000000000006 234.50000000000003 0.25000000000000006 13.000000000000002 1.4655000000000002
decision_type=2 2 2 2 2 2 2
left_child=1 2 3 5 -3 6 -1
right_child=-2 4 -4 -5 -6 -7 -8
leaf_value=0.0045150539790046349 -0.00030308072448858583 8.259624855656012e-05 -6.2866868615618632e-05 0.0046676214958574769 0.00045880258248142682 -0.00013160775088487677 -0.0012675003894183747
leaf_weight=17 1968 25 1283 80 186 295 22
leaf_count=17 1968 25 1283 80 186 295 22
internal_value=0 0.00341195 -0.00108132 0.00671497 0.0395498 -0.00245509 0.0167949
internal_weight=0 1908 1697 414 211 334 39
internal_count=3876 1908 1697 414 211 334 39
is_linear=0
shrinkage=0.05


Tree=36
num_leaves=8
num_cat=0
split_feature=1 0 0 1 0 0 0
split_gain=32.9309 30.8235 108.446 25.2955 41.8251 39.5263 20.4521
threshold=5.0000000000000009 52.500000000000007 49.500000000000007 1119.0000000000002 28.500000000000004 33.500000000000007 4.5000000000000009
decision_type=2 2 2 2 2 2 2
left_child=-1 2 3 4 6 -6 -2
right_child=1 -3 -4 -5 5 -7 -8
leaf_value=1.253967463850092e-05 0.0031024167649805093 -0.0012723860906968865 0.00043586245335735521 -0.013135181869307212 0.0044342404210646058 -0.00041898681753553828 -0.00012502736334063513
leaf_weight=48 23 1920 211 790 217 128 539
leaf_count=48 23 1920 211 790 217 128 539
internal_value=0 0.00124347 0.00574423 0.00154095 0.00723815 0.020942 -0.00117438
internal_weight=0 3828 1908 1697 907 345 562
internal_count=3876 3828 1908 1697 907 345 562
is_linear=0
shrinkage=0.05


Tree=37
num_leaves=8
num_cat=0
split_feature=1 0 0 1 1 2 1
split_gain=34.7937 16.883 123.926 13.3135 58.1382 10.5873 6.54499
threshold=5.0000000000000009 52.500000000000007 49.500000000000007 291.00000000000006 234.50000000000003 0.25000000000000006 13.000000000000002
decision_type=2 2 2 2 2 2 2
left_child=-1 2 3 4 6 -4 -2
right_child=1 -3 5 -5 -6 -7 -8
leaf_value=1.1912690906579206e-05 0.0042955526482214351 -0.0012087667861620411 5.6673313460864352e-05 -0.00028143554623807356 0.0042125284000113731 0.00041406933068948717 -0.00011877599517360338
leaf_weight=48 39 1920 25 1283 80 186 295
leaf_count=48 39 1920 25 1283 80 186 295
internal_value=0 8.0981e-05 0.00341195 -0.00108132 0.00671497 0.0395498 -0.00245509
internal_weight=0 3828 1908 1697 414 211 334
internal_count=3876 3828 1908 1697 414 211 334
is_linear=0
shrinkage=0.05


Tree=38
num_leaves=8
num_cat=0
split_feature=1 0 0 1 1 2 1
split_gain=34.7937 16.883 123.926 13.3135 58.1382 10.5873 6.54499
threshold=5.0000000000000009 52.500000000000007 49.500000000000007 291.00000000000006 234.50000000000003 0.25000000000000006 13.000000000000002
decision_type=2 2 2 2 2 2 2
left_child=-1 2 3 4 6 -4 -2
right_child=1 -3 5 -5 -6 -7 -8
leaf_value=1.131705636124858e-05 0.0040807750158103678 -0.0011483284468539413 5.3839647787823353e-05 -0.00026736376892616542 0.004001901980010803 0.0003933658641550153 -0.00011283719541492765
leaf_weight=48 39 1920 25 1283 80 186 295
leaf_count=48 39 1920 25 1283 80 186 295
internal_value=0 8.0981e-05 0.00341195 -0.00108132 0.00671497 0.0395498 -0.00245509
internal_weight=0 3828 1908 1697 414 211 334
internal_count=3876 3828 1908 1697 414 211 334
is_linear=0
shrinkage=0.05


Tree=39
num_leaves=8
num_cat=0
split_feature=1 2 1 1 2 0 2
split_gain=75.5066 16.23 24.0124 74.5493 15.7342 7.4974 7.09243
threshold=13.000000000000002 0.83750000000000002 1473.0000000000002 1670.5000000000002 1.1505000000000003 4.5000000000000009 1.3745000000000003
decision_type=2 2 2 2 2 2 2
left_child=4 -2 5 -4 -1 -3 -7
right_child=1 2 3 -5 -6 6 -8
leaf_value=0.0004220022098520203 -0.00025399558047985995 0.0029747358924896994 0.00037369757094726232 -0.028521561802450437 -0.0016166903849820003 -0.00019242934992037554 0.0038018068810102613
leaf_weight=170 2690 8.9999999999999982 131 173 26 520 157
leaf_count=170 2690 9 131 173 26 520 157
internal_value=0 -0.000625001 0.00484848 0.0165461 0.0312245 -0.000335278 -0.000937963
internal_weight=0 3680 990 304 196 686 677
internal_count=3876 3680 990 304 196 686 677
is_linear=0
shrinkage=0.05


Tree=40
num_leaves=8
num_cat=0
split_feature=1 0 2 0 0 2 1
split_gain=28.117 32.542 17.9345 20.2439 91.3608 10.358 7.75343
threshold=13.000000000000002 96.500000000000014 0.83750000000000002 46.500000000000007 56.500000000000007 1.5125000000000002 906.00000000000011
decision_type=2 2 2 2 2 2 2
left_child=1 -1 6 5 -5 -4 -2
right_child=2 -3 3 4 -6 -7 -8
leaf_value=0.0038556361545272534 1.0191016046390278e-05 1.7059945091069119e-05 -0.00038252154228620333 0.00035501269239989754 -0.0016680770612397034 0.0036117165369597528 -0.012150246565414814
leaf_weight=115 1227 81 441 164 332 53 1463
leaf_count=115 1227 81 441 164 332 53 1463
internal_value=0 0.0194898 5.43466e-05 0.00580808 0.0129435 -0.00135628 -0.0020632
internal_weight=0 196 3680 990 496 494 2690
internal_count=3876 196 3680 990 496 494 2690
is_linear=0
shrinkage=0.05


Tree=41
num_leaves=8
num_cat=0
split_feature=1 0 2 1 1 1 0
split_gain=28.5511 32.542 13.2396 24.0124 74.5493 8.50171 11.1226
threshold=13.000000000000002 96.500000000000014 0.83750000000000002 1473.0000000000002 1670.5000000000002 1119.0000000000002 4.5000000000000009
decision_type=2 2 2 2 2 2 2
left_child=1 -1 5 -4 -5 6 -2
right_child=2 -3 3 4 -6 -7 -8
leaf_value=0.0036628543468008924 0.0035949479997844369 1.6206947836516773e-05 -1.0637930101581318e-05 0.0003372620577799024 -0.027076357635213599 -0.012979851087132 9.6814652440713203e-06
leaf_weight=115 13.999999999999998 81 686 131 173 1220 1456
leaf_count=115 14 81 686 131 173 1220 1456
internal_value=0 0.0194898 -9.51099e-05 0.00484848 0.0165461 -0.0019145 0.000646257
internal_weight=0 196 3680 990 304 2690 1470
internal_count=3876 196 3680 990 304 2690 1470
is_linear=0
shrinkage=0.05


Tree=42
num_leaves=8
num_cat=0
split_feature=1 0 2 1 1 1 0
split_gain=28.5511 32.542 13.2396 24.0124 74.5493 8.50171 11.1226
threshold=13.000000000000002 96.500000000000014 0.83750000000000002 1473.0000000000002 1670.5000000000002 1119.0000000000002 4.5000000000000009
decision_type=2 2 2 2 2 2 2
left_child=1 -1 5 -4 -5 6 -2
right_child=2 -3 3 4 -6 -7 -8
leaf_value=0.0034797116294608466 0.0034152005997952154 1.5396600444694819e-05 -1.0106033596501974e-05 0.0003203989548909048 -0.025722539753452924 -0.012330858532775402 9.1973919818688642e-06
leaf_weight=115 13.999999999999998 81 686 131 173 1220 1456
leaf_count=115 14 81 686 131 173 1220 1456
internal_value=0 0.0194898 -9.51099e-05 0.00484848 0.0165461 -0.0019145 0.000646257
internal_weight=0 196 3680 990 304 2690 1470
internal_count=3876 196 3680 990 304 2690 1470
is_linear=0
shrinkage=0.05


Tree=43
num_leaves=8
num_cat=0
split_feature=1 0 2 1 1 1 0
split_gain=28.5511 32.542 13.2396 24.0124 74.5493 8.50171 11.1226
threshold=13.000000000000002 96.500000000000014 0.83750000000000002 1473.0000000000002 1670.5000000000002 1119.0000000000002 4.5000000000000009
decision_type=2 2 2 2 2 2 2
left_child=1 -1 5 -4 -5 6 -2
right_child=2 -3 3 4 -6 -7 -8
leaf_value=0.0033057260479878005 0.0032444405698054571 1.4626770422454528e-05 -9.600731916675765e-06 0.00030437900714636035 -0.024436412765780277 -0.011714315606136633 8.7375223827734782e-06
leaf_weight=115 13.999999999999998 81 686 131 173 1220 1456
leaf_count=115 14 81 686 131 173 1220 1456
internal_value=0 0.0194898 -9.51099e-05 0.00484848 0.0165461 -0.0019145 0.000646257
internal_weight=0 196 3680 990 304 2690 1470
internal_count=3876 196 3680 990 304 2690 1470
is_linear=0
shrinkage=0.05


Tree=44
num_leaves=8
num_cat=0
split_feature=1 0 2 1 1 1 0
split_gain=28.5511 32.542 13.2396 24.0124 74.5493 8.50171 11.1226
threshold=13.000000000000002 96.500000000000014 0.83750000000000002 1473.0000000000002 1670.5000000000002 1119.0000000000002 4.5000000000000009
decision_type=2 2 2 2 2 2 2
left_child=1 -1 5 -4 -5 6 -2
right_child=2 -3 3 4 -6 -7 -8
leaf_value=0.0031404397455884084 0.0030822185413151848 1.3895431901334021e-05 -9.1206953208411441e-06 0.00028916005678903957 -0.023214592127491263 -0.0111285998258298 8.3006462636370234e-06
leaf_weight=115 13.999999999999998 81 686 131 173 1220 1456
leaf_count=115 14 81 686 131 173 1220 1456
internal_value=0 0.0194898 -9.51099e-05 0.00484848 0.0165461 -0.0019145 0.000646257
internal_weight=0 196 3680 990 304 2690 1470
internal_count=3876 196 3680 990 304 2690 1470
is_linear=0
shrinkage=0.05


Tree=45
num_leaves=8
num_cat=0
split_feature=1 0 2 1 1 1 0
split_gain=28.5511 32.542 13.2396 24.0124 74.5493 8.50171 11.1226
threshold=13.000000000000002 96.500000000000014 0.83750000000000002 1473.0000000000002 1670.5000000000002 1119.0000000000002 4.5000000000000009
decision_type=2 2 2 2 2 2 2
left_child=1 -1 5 -4 -5 6 -2
right_child=2 -3 3 4 -6 -7 -8
leaf_value=0.0029834177583089928 0.0029281076142494257 1.3200660306267321e-05 -8.6646605547968658e-06 0.00027470205394958816 -0.022053862521116702 -0.010572169834538309 7.8856139504535069e-06
leaf_weight=115 13.999999999999998 81 686 131 173 1220 1456
leaf_count=115 14 81 686 131 173 1220 1456
internal_value=0 0.0194898 -9.51099e-05 0.00484848 0.0165461 -0.0019145 0.000646257
internal_weight=0 196 3680 990 304 2690 1470
internal_count=3876 196 3680 990 304 2690 1470
is_linear=0
shrinkage=0.05


Tree=46
num_leaves=8
num_cat=0
split_feature=1 0 2 1 1 1 0
split_gain=28.5511 32.542 13.2396 24.0124 74.5493 8.50171 11.1226
threshold=13.000000000000002 96.500000000000014 0.83750000000000002 1473.0000000000002 1670.5000000000002 1119.0000000000002 4.5000000000000009
decision_type=2 2 2 2 2 2 2
left_child=1 -1 5 -4 -5 6 -2
right_child=2 -3 3 4 -6 -7 -8
leaf_value=0.0028342468703935423 0.0027817022335369537 1.254062729095784e-05 -8.2314275270556358e-06 0.00026096695125210623 -0.020951169395060865 -0.010043561342811392 7.4913332529291669e-06
leaf_weight=115 13.999999999999998 81 686 131 173 1220 1456
leaf_count=115 14 81 686 131 173 1220 1456
internal_value=0 0.0194898 -9.51099e-05 0.00484848 0.0165461 -0.0019145 0.000646257
internal_weight=0 196 3680 990 304 2690 1470
internal_count=3876 196 3680 990 304 2690 1470
is_linear=0
shrinkage=0.05


Tree=47
num_leaves=8
num_cat=0
split_feature=1 0 2 1 1 1 0
split_gain=28.5511 32.542 13.2396 24.0124 74.5493 8.50171 11.1226
threshold=13.000000000000002 96.500000000000014 0.83750000000000002 1473.0000000000002 1670.5000000000002 1119.0000000000002 4.5000000000000009
decision_type=2 2 2 2 2 2 2
left_child=1 -1 5 -4 -5 6 -2
right_child=2 -3 3 4 -6 -7 -8
leaf_value=0.0026925345268738691 0.0026426171218601083 1.1913595926404952e-05 -7.819856150703686e-06 0.00024791860368950092 -0.019903610925307826 -0.0095413832756708235 7.1167665902815981e-06
leaf_weight=115 13.999999999999998 81 686 131 173 1220 1456
leaf_count=115 14 81 686 131 173 1220 1456
internal_value=0 0.0194898 -9.51099e-05 0.00484848 0.0165461 -0.0019145 0.000646257
internal_weight=0 196 3680 990 304 2690 1470
internal_count=3876 196 3680 990 304 2690 1470
is_linear=0
shrinkage=0.05


Tree=48
num_leaves=8
num_cat=0
split_feature=1 0 2 1 1 1 0
split_gain=28.5511 32.542 13.2396 24.0124 74.5493 8.50171 11.1226
threshold=13.000000000000002 96.500000000000014 0.83750000000000002 1473.0000000000002 1670.5000000000002 1119.0000000000002 4.5000000000000009
decision_type=2 2 2 2 2 2 2
left_child=1 -1 5 -4 -5 6 -2
right_child=2 -3 3 4 -6 -7 -8
leaf_value=0.0025579078005301794 0.0025104862657671038 1.1317916130082484e-05 -7.4288633431673913e-06 0.00023552267350502866 -0.018908430379042437 -0.0090643141118872846 6.7609282607683507e-06
leaf_weight=115 13.999999999999998 81 686 131 173 1220 1456
leaf_count=115 14 81 686 131 173 1220 1456
internal_value=0 0.0194898 -9.51099e-05 0.00484848 0.0165461 -0.0019145 0.000646257
internal_weight=0 196 3680 990 304 2690 1470
internal_count=3876 196 3680 990 304 2690 1470
is_linear=0
shrinkage=0.05


Tree=49
num_leaves=8
num_cat=0
split_feature=1 0 2 1 1 1 0
split_gain=28.5511 32.542 13.2396 24.0124 74.5493 8.50171 11.1226
threshold=13.000000000000002 96.500000000000014 0.83750000000000002 1473.0000000000002 1670.5000000000002 1119.0000000000002 4.5000000000000009
decision_type=2 2 2 2 2 2 2
left_child=1 -1 5 -4 -5 6 -2
right_child=2 -3 3 4 -6 -7 -8
leaf_value=0.002430012410503668 0.0023849619524787483 1.0752020323578915e-05 -7.0574201760098543e-06 0.00022374653982977778 -0.017963008860090314 -0.0086110984062929222 6.4228818477285456e-06
leaf_weight=115 13.999999999999998 81 686 131 173 1220 1456
leaf_count=115 14 81 686 131 173 1220 1456
internal_value=0 0.0194898 -9.51099e-05 0.00484848 0.0165461 -0.0019145 0.000646257
internal_weight=0 196 3680 990 304 2690 1470
internal_count=3876 196 3680 990 304 2690 1470
is_linear=0
shrinkage=0.05


Tree=50
num_leaves=8
num_cat=0
split_feature=1 0 2 1 1 1 0
split_gain=28.5511 32.542 13.2396 24.0124 74.5493 8.50171 11.1226
threshold=13.000000000000002 96.500000000000014 0.83750000000000002 1473.0000000000002 1670.5000000000002 1119.0000000000002 4.5000000000000009
decision_type=2 2 2 2 2 2 2
left_child=1 -1 5 -4 -5 6 -2
right_child=2 -3 3 4 -6 -7 -8
leaf_value=0.0023085117899784846 0.0022657138548548119 1.0214419307397195e-05 -6.7045491672079738e-06 0.00021255921283828695 -0.017064858417085799 -0.0081805434859782752 6.1017377553429512e-06
leaf_weight=115 13.999999999999998 81 686 131 173 1220 1456
leaf_count=115 14 81 686 131 173 1220 1456
internal_value=0 0.0194898 -9.51099e-05 0.00484848 0.0165461 -0.0019145 0.000646257
internal_weight=0 196 3680 990 304 2690 1470
internal_count=3876 196 3680 990 304 2690 1470
is_linear=0
shrinkage=0.05


Tree=51
num_leaves=8
num_cat=0
split_feature=1 0 2 1 1 1 0
split_gain=28.5511 32.542 13.2396 24.0124 74.5493 8.50171 11.1226
threshold=13.000000000000002 96.500000000000014 0.83750000000000002 1473.0000000000002 1670.5000000000002 1119.0000000000002 4.5000000000000009
decision_type=2 2 2 2 2 2 2
left_child=1 -1 5 -4 -5 6 -2
right_child=2 -3 3 4 -6 -7 -8
leaf_value=0.0021930862004795547 0.0021524281621120691 9.7036983420228928e-06 -6.369321708848963e-06 0.00020193125219637454 -0.016211615496231509 -0.0077715163116793612 5.7966508675733054e-06
leaf_weight=115 13.999999999999998 81 686 131 173 1220 1456
leaf_count=115 14 81 686 131 173 1220 1456
internal_value=0 0.0194898 -9.51099e-05 0.00484848 0.0165461 -0.0019145 0.000646257
internal_weight=0 196 3680 990 304 2690 1470
internal_count=3876 196 3680 990 304 2690 1470
is_linear=0
shrinkage=0.05


Tree=52
num_leaves=8
num_cat=0
split_feature=1 0 0 0 0 2 0
split_gain=28.4719 32.542 13.3088 98.3732 13.6898 9.84992 7.96478
threshold=13.000000000000002 96.500000000000014 52.500000000000007 49.500000000000007 50.500000000000007 1.4425000000000001 25.500000000000004
decision_type=2 2 2 2 2 2 2
left_child=1 -1 3 5 -5 -2 -7
right_child=2 -3 -4 4 -6 6 -8
leaf_value=0.0020834318904555784 -0.0001844137686185743 9.2185134249245241e-06 -0.0018816657439281181 0.00019183468958655636 5.506818324196861e-06 -0.00047328443206452465 0.0034357177845899204
leaf_weight=115 1592 81 1811 131 80 27 39
leaf_count=115 1592 81 1811 131 80 27 39
internal_value=0 0.0194898 -6.7936e-05 0.00289192 0.0350474 -0.00120024 0.0177273
internal_weight=0 196 3680 1869 211 1658 66
internal_count=3876 196 3680 1869 211 1658 66
is_linear=0
shrinkage=0.05


Tree=53
num_leaves=8
num_cat=0
split_feature=1 0 2 1 1 1 0
split_gain=28.2351 32.542 14.301 22.7844 74.5493 8.55234 11.1108
threshold=13.000000000000002 96.500000000000014 0.83750000000000002 1473.0000000000002 1670.5000000000002 1182.0000000000002 4.5000000000000009
decision_type=2 2 2 2 2 2 2
left_child=1 -1 5 -4 -5 6 -2
right_child=2 -3 3 4 -6 -7 -8
leaf_value=0.0019792602959327944 0.0020540274424373953 8.7575877536827388e-06 5.7722066883458828e-05 0.00018224295510722578 -0.015391814032989004 -0.0072888572088989859 5.2314774079853523e-06
leaf_weight=115 13.999999999999998 81 686 131 173 1208 1468
leaf_count=115 14 81 686 131 173 1208 1468
internal_value=0 0.0194898 1.35858e-05 0.00515151 0.0165461 -0.00187732 0.000668015
internal_weight=0 196 3680 990 304 2690 1482
internal_count=3876 196 3680 990 304 2690 1482
is_linear=0
shrinkage=0.05


Tree=54
num_leaves=8
num_cat=0
split_feature=1 0 2 1 1 1 0
split_gain=28.2351 32.542 14.301 22.7844 74.5493 8.55234 11.1108
threshold=13.000000000000002 96.500000000000014 0.83750000000000002 1473.0000000000002 1670.5000000000002 1182.0000000000002 4.5000000000000009
decision_type=2 2 2 2 2 2 2
left_child=1 -1 5 -4 -5 6 -2
right_child=2 -3 3 4 -6 -7 -8
leaf_value=0.0018802972811361564 0.0019513260703155233 8.3197083660002679e-06 5.4835963539290326e-05 0.00017313080735186228 -0.014622223331339555 -0.0069244143484540393 4.9699035375883051e-06
leaf_weight=115 13.999999999999998 81 686 131 173 1208 1468
leaf_count=115 14 81 686 131 173 1208 1468
internal_value=0 0.0194898 1.35858e-05 0.00515151 0.0165461 -0.00187732 0.000668015
internal_weight=0 196 3680 990 304 2690 1482
internal_count=3876 196 3680 990 304 2690 1482
is_linear=0
shrinkage=0.05


Tree=55
num_leaves=8
num_cat=0
split_feature=1 0 2 1 1 1 0
split_gain=28.2351 32.542 14.301 22.7844 74.5493 8.55234 11.1108
threshold=13.000000000000002 96.500000000000014 0.83750000000000002 1473.0000000000002 1670.5000000000002 1182.0000000000002 4.5000000000000009
decision_type=2 2 2 2 2 2 2
left_child=1 -1 5 -4 -5 6 -2
right_child=2 -3 3 4 -6 -7 -8
leaf_value=0.0017862824170793434 0.0018537597667997452 7.9037229476996981e-06 5.2094165362326364e-05 0.00016447426698427137 -0.013891112164772576 -0.0065781936310313378 4.7214083607083348e-06
leaf_weight=115 13.999999999999998 81 686 131 173 1208 1468
leaf_count=115 14 81 686 131 173 1208 1468
internal_value=0 0.0194898 1.35858e-05 0.00515151 0.0165461 -0.00187732 0.000668015
internal_weight=0 196 3680 990 304 2690 1482
internal_count=3876 196 3680 990 304 2690 1482
is_linear=0
shrinkage=0.05


Tree=56
num_leaves=8
num_cat=0
split_feature=1 0 1 1 0 2 0
split_gain=27.7253 32.542 13.6231 101.88 18.953 7.12029 7.36667
threshold=13.000000000000002 96.500000000000014 1546.5000000000002 1473.0000000000002 4.5000000000000009 0.10150000000000002 89.500000000000014
decision_type=2 2 2 2 2 2 2
left_child=1 5 3 4 -2 6 -1
right_child=2 -3 -4 -5 -6 -7 -8
leaf_value=0.0016969682962253763 0.0028507003280993761 7.5085368003158237e-06 -0.013208924234275693 0.00015625055363505669 -1.4558806328873742e-05 -0.0021690167652512861 -0.0021690167652512861
leaf_weight=17 23 81 941 131 2585 85 13.000000000000002
leaf_count=17 23 81 941 131 2585 85 13
internal_value=0 0.0194898 0.000190216 0.00197335 -0.000187885 0.0023913 0.0233333
internal_weight=0 196 3680 2739 2608 115 30
internal_count=3876 196 3680 2739 2608 115 30
is_linear=0
shrinkage=0.05


Tree=57
num_leaves=8
num_cat=0
split_feature=1 0 1 1 0 2 0
split_gain=27.7253 32.542 13.6231 101.88 18.953 7.12029 7.36667
threshold=13.000000000000002 96.500000000000014 1546.5000000000002 1473.0000000000002 4.5000000000000009 0.10150000000000002 89.500000000000014
decision_type=2 2 2 2 2 2 2
left_child=1 5 3 4 -2 6 -1
right_child=2 -3 -4 -5 -6 -7 -8
leaf_value=0.0016121198814141092 0.0027081653116944049 7.1331099603000327e-06 -0.012548478022561911 0.00014843802595330136 -1.3830866012431998e-05 -0.0020605659269887222 -0.0020605659269887222
leaf_weight=17 23 81 941 131 2585 85 13.000000000000002
leaf_count=17 23 81 941 131 2585 85 13
internal_value=0 0.0194898 0.000190216 0.00197335 -0.000187885 0.0023913 0.0233333
internal_weight=0 196 3680 2739 2608 115 30
internal_count=3876 196 3680 2739 2608 115 30
is_linear=0
shrinkage=0.05


Tree=58
num_leaves=8
num_cat=0
split_feature=1 0 1 1 0 2 0
split_gain=27.7253 32.542 13.6231 101.88 18.953 7.12029 7.36667
threshold=13.000000000000002 96.500000000000014 1546.5000000000002 1473.0000000000002 4.5000000000000009 0.10150000000000002 89.500000000000014
decision_type=2 2 2 2 2 2 2
left_child=1 5 3 4 -2 6 -1
right_child=2 -3 -4 -5 -6 -7 -8
leaf_value=0.0015315138873434053 0.0025727570461096861 6.7764544622872513e-06 -0.011921054121433817 0.00014101612465563517 -1.3139322711808177e-05 -0.0019575376306392835 -0.0019575376306392835
leaf_weight=17 23 81 941 131 2585 85 13.000000000000002
leaf_count=17 23 81 941 131 2585 85 13
internal_value=0 0.0194898 0.000190216 0.00197335 -0.000187885 0.0023913 0.0233333
internal_weight=0 196 3680 2739 2608 115 30
internal_count=3876 196 3680 2739 2608 115 30
is_linear=0
shrinkage=0.05


Tree=59
num_leaves=8
num_cat=0
split_feature=1 0 1 1 0 2 0
split_gain=27.7253 32.542 13.6231 101.88 18.953 7.12029 7.36667
threshold=13.000000000000002 96.500000000000014 1546.5000000000002 1473.0000000000002 4.5000000000000009 0.10150000000000002 89.500000000000014
decision_type=2 2 2 2 2 2 2
left_child=1 5 3 4 -2 6 -1
right_child=2 -3 -4 -5 -6 -7 -8
leaf_value=0.0014549381929762407 0.0024441191938042008 6.4376317391756645e-06 -0.011325001415362124 0.00013396531842285175 -1.2482356576215549e-05 -0.0018596607491073169 -0.0018596607491073169
leaf_weight=17 23 81 941 131 2585 85 13.000000000000002
leaf_count=17 23 81 941 131 2585 85 13
internal_value=0 0.0194898 0.000190216 0.00197335 -0.000187885 0.0023913 0.0233333
internal_weight=0 196 3680 2739 2608 115 30
internal_count=3876 196 3680 2739 2608 115 30
is_linear=0
shrinkage=0.05


Tree=60
num_leaves=8
num_cat=0
split_feature=1 0 1 1 0 2 0
split_gain=27.7253 32.542 13.6231 101.88 18.953 7.12029 7.36667
threshold=13.000000000000002 96.500000000000014 1546.5000000000002 1473.0000000000002 4.5000000000000009 0.10150000000000002 89.500000000000014
decision_type=2 2 2 2 2 2 2
left_child=1 5 3 4 -2 6 -1
right_child=2 -3 -4 -5 -6 -7 -8
leaf_value=0.0013821912833274276 0.0023219132341139926 6.115750152213551e-06 -0.01075875134459402 0.00012726705250171166 -1.1858238747403106e-05 -0.0017666777116519539 -0.0017666777116519539
leaf_weight=17 23 81 941 131 2585 85 13.000000000000002
leaf_count=17 23 81 941 131 2585 85 13
internal_value=0 0.0194898 0.000190216 0.00197335 -0.000187885 0.0023913 0.0233333
internal_weight=0 196 3680 2739 2608 115 30
internal_count=3876 196 3680 2739 2608 115 30
is_linear=0
shrinkage=0.05


Tree=61
num_leaves=8
num_cat=0
split_feature=1 0 1 1 0 2 0
split_gain=27.7253 32.542 13.6231 101.88 18.953 7.12029 7.36667
threshold=13.000000000000002 96.500000000000014 1546.5000000000002 1473.0000000000002 4.5000000000000009 0.10150000000000002 89.500000000000014
decision_type=2 2 2 2 2 2 2
left_child=1 5 3 4 -2 6 -1
right_child=2 -3 -4 -5 -6 -7 -8
leaf_value=0.0013130817191610578 0.0022058175724082919 5.809962644598432e-06 -0.010220813777364319 0.00012090369987662886 -1.1265326810033782e-05 -0.0016783438260693506 -0.0016783438260693506
leaf_weight=17 23 81 941 131 2585 85 13.000000000000002
leaf_count=17 23 81 941 131 2585 85 13
internal_value=0 0.0194898 0.000190216 0.00197335 -0.000187885 0.0023913 0.0233333
internal_weight=0 196 3680 2739 2608 115 30
internal_count=3876 196 3680 2739 2608 115 30
is_linear=0
shrinkage=0.05


Tree=62
num_leaves=8
num_cat=0
split_feature=1 0 1 1 0 2 0
split_gain=27.7253 32.542 13.6231 101.88 18.953 7.12029 7.36667
threshold=13.000000000000002 96.500000000000014 1546.5000000000002 1473.0000000000002 4.5000000000000009 0.10150000000000002 89.500000000000014
decision_type=2 2 2 2 2 2 2
left_child=1 5 3 4 -2 6 -1
right_child=2 -3 -4 -5 -6 -7 -8
leaf_value=0.0012474276332030021 0.0020955266937878747 5.5194645123712862e-06 -0.0097097730884961042 0.00011485851488279852 -1.0702060469530706e-05 -0.0015944266347658776 -0.0015944266347658776
leaf_weight=17 23 81 941 131 2585 85 13.000000000000002
leaf_count=17 23 81 941 131 2585 85 13
internal_value=0 0.0194898 0.000190216 0.00197335 -0.000187885 0.0023913 0.0233333
internal_weight=0 196 3680 2739 2608 115 30
internal_count=3876 196 3680 2739 2608 115 30
is_linear=0
shrinkage=0.05


Tree=63
num_leaves=8
num_cat=0
split_feature=1 0 1 1 0 2 0
split_gain=27.7253 32.542 13.6231 101.88 18.953 7.12029 7.36667
threshold=13.000000000000002 96.500000000000014 1546.5000000000002 1473.0000000000002 4.5000000000000009 0.10150000000000002 89.500000000000014
decision_type=2 2 2 2 2 2 2
left_child=1 5 3 4 -2 6 -1
right_child=2 -3 -4 -5 -6 -7 -8
leaf_value=0.0011850562515428487 0.0019907503590984809 5.2434912867549425e-06 -0.0092242844340713007 0.00010911558913865861 -1.0166957446056114e-05 -0.001514705303027586 -0.001514705303027586
leaf_weight=17 23 81 941 131 2585 85 13.000000000000002
leaf_count=17 23 81 941 131 2585 85 13
internal_value=0 0.0194898 0.000190216 0.00197335 -0.000187885 0.0023913 0.0233333
internal_weight=0 196 3680 2739 2608 115 30
internal_count=3876 196 3680 2739 2608 115 30
is_linear=0
shrinkage=0.05


Tree=64
num_leaves=8
num_cat=0
split_feature=1 0 1 1 0 2 0
split_gain=27.7253 32.542 13.6231 101.88 18.953 7.12029 7.36667
threshold=13.000000000000002 96.500000000000014 1546.5000000000002 1473.0000000000002 4.5000000000000009 0.10150000000000002 89.500000000000014
decision_type=2 2 2 2 2 2 2
left_child=1 5 3 4 -2 6 -1
right_child=2 -3 -4 -5 -6 -7 -8
leaf_value=0.0011258034389657113 0.0018912128411435582 4.9813167224188607e-06 -0.0087630702123677358 0.00010365980968172762 -9.6586095737538628e-06 -0.0014389700378762084 -0.0014389700378762084
leaf_weight=17 23 81 941 131 2585 85 13.000000000000002
leaf_count=17 23 81 941 131 2585 85 13
internal_value=0 0.0194898 0.000190216 0.00197335 -0.000187885 0.0023913 0.0233333
internal_weight=0 196 3680 2739 2608 115 30
internal_count=3876 196 3680 2739 2608 115 30
is_linear=0
shrinkage=0.05


Tree=65
num_leaves=8
num_cat=0
split_feature=1 0 1 1 0 2 0
split_gain=27.1428 32.542 14.714 100.588 18.7126 7.12029 7.36667
threshold=13.000000000000002 96.500000000000014 1546.5000000000002 1473.0000000000002 4.5000000000000009 0.10150000000000002 89.500000000000014
decision_type=2 2 2 2 2 2 2
left_child=1 5 3 4 -2 6 -1
right_child=2 -3 -4 -5 -6 -7 -8
leaf_value=0.0010695132670174301 0.0017966521990863795 4.7322508862968075e-06 -0.008324916701749346 9.8476819197640397e-05 -9.1756790950636716e-06 -0.0013670215359823934 -0.0013670215359823934
leaf_weight=17 23 81 941 131 2585 85 13.000000000000002
leaf_count=17 23 81 941 131 2585 85 13
internal_value=0 0.0194898 0.000394021 0.00224717 9.96921e-05 0.0023913 0.0233333
internal_weight=0 196 3680 2739 2608 115 30
internal_count=3876 196 3680 2739 2608 115 30
is_linear=0
shrinkage=0.05


Tree=66
num_leaves=8
num_cat=0
split_feature=1 0 1 1 2 0 2
split_gain=25.8078 32.542 15.3252 87.4958 25.8394 18.7126 7.12029
threshold=13.000000000000002 96.500000000000014 1770.5000000000002 1473.0000000000002 0.59050000000000014 4.5000000000000009 0.10150000000000002
decision_type=2 2 2 2 2 2 2
left_child=1 6 3 5 -5 -2 -1
right_child=2 -3 -4 4 -6 -7 -8
leaf_value=0.0010160376036665532 0.0017068195891320583 4.4956383419836321e-06 -0.0092014918364626674 -0.0063485631980044147 0.00040322366935649501 -8.7168951403093772e-06 -0.0012986704591832711
leaf_weight=30 23 81 854 37 181 2585 85
leaf_count=30 23 81 854 37 181 2585 85
internal_value=0 0.0194898 0.000869564 0.00264331 0.0330734 9.96921e-05 0.0023913
internal_weight=0 196 3680 2826 218 2608 115
internal_count=3876 196 3680 2826 218 2608 115
is_linear=0
shrinkage=0.05


Tree=67
num_leaves=8
num_cat=0
split_feature=1 0 1 1 2 0 2
split_gain=25.8078 32.542 15.3252 87.4958 25.8394 18.7126 7.12029
threshold=13.000000000000002 96.500000000000014 1770.5000000000002 1473.0000000000002 0.59050000000000014 4.5000000000000009 0.10150000000000002
decision_type=2 2 2 2 2 2 2
left_child=1 6 3 5 -5 -2 -1
right_child=2 -3 -4 4 -6 -7 -8
leaf_value=0.0009652357234832265 0.0016214786096754531 4.2708564248816753e-06 -0.0087414172446395322 -0.0060311350381041968 0.00038306248588866891 -8.2810503832964077e-06 -0.0012337369362241059
leaf_weight=30 23 81 854 37 181 2585 85
leaf_count=30 23 81 854 37 181 2585 85
internal_value=0 0.0194898 0.000869564 0.00264331 0.0330734 9.96921e-05 0.0023913
internal_weight=0 196 3680 2826 218 2608 115
internal_count=3876 196 3680 2826 218 2608 115
is_linear=0
shrinkage=0.05


Tree=68
num_leaves=8
num_cat=0
split_feature=1 0 1 1 2 0 2
split_gain=25.8078 32.542 15.3252 87.4958 25.8394 18.7126 7.12029
threshold=13.000000000000002 96.500000000000014 1770.5000000000002 1473.0000000000002 0.59050000000000014 4.5000000000000009 0.10150000000000002
decision_type=2 2 2 2 2 2 2
left_child=1 6 3 5 -5 -2 -1
right_child=2 -3 -4 4 -6 -7 -8
leaf_value=0.00091697393730906247 0.0015404046791916816 4.0573136036337056e-06 -0.0083043463824075577 -0.0057295782861989863 0.00036390936159423349 -7.8669978641310319e-06 -0.0011720500894129016
leaf_weight=30 23 81 854 37 181 2585 85
leaf_count=30 23 81 854 37 181 2585 85
internal_value=0 0.0194898 0.000869564 0.00264331 0.0330734 9.96921e-05 0.0023913
internal_weight=0 196 3680 2826 218 2608 115
internal_count=3876 196 3680 2826 218 2608 115
is_linear=0
shrinkage=0.05


Tree=69
num_leaves=8
num_cat=0
split_feature=1 0 1 1 2 0 2
split_gain=25.8078 32.542 15.3252 87.4958 25.8394 18.7126 7.12029
threshold=13.000000000000002 96.500000000000014 1770.5000000000002 1473.0000000000002 0.59050000000000014 4.5000000000000009 0.10150000000000002
decision_type=2 2 2 2 2 2 2
left_child=1 6 3 5 -5 -2 -1
right_child=2 -3 -4 4 -6 -7 -8
leaf_value=0.00087112524044360431 0.0014633844452320967 3.854447923457016e-06 -0.0078891290632871792 -0.0054430993718890376 0.00034571389351452099 -7.4736479709236471e-06 -0.0011134475849422509
leaf_weight=30 23 81 854 37 181 2585 85
leaf_count=30 23 81 854 37 181 2585 85
internal_value=0 0.0194898 0.000869564 0.00264331 0.0330734 9.96921e-05 0.0023913
internal_weight=0 196 3680 2826 218 2608 115
internal_count=3876 196 3680 2826 218 2608 115
is_linear=0
shrinkage=0.05


Tree=70
num_leaves=8
num_cat=0
split_feature=1 0 1 1 2 0 2
split_gain=25.8078 32.542 15.3252 87.4958 25.8394 18.7126 7.12029
threshold=13.000000000000002 96.500000000000014 1770.5000000000002 1473.0000000000002 0.59050000000000014 4.5000000000000009 0.10150000000000002
decision_type=2 2 2 2 2 2 2
left_child=1 6 3 5 -5 -2 -1
right_child=2 -3 -4 4 -6 -7 -8
leaf_value=0.00082756897842142243 0.0013902152229704923 3.6617255272819451e-06 -0.0074946726101228186 -0.0051709444032945863 0.00032842819883879273 -7.09996557237691e-06 -0.001057775205695144
leaf_weight=30 23 81 854 37 181 2585 85
leaf_count=30 23 81 854 37 181 2585 85
internal_value=0 0.0194898 0.000869564 0.00264331 0.0330734 9.96921e-05 0.0023913
internal_weight=0 196 3680 2826 218 2608 115
internal_count=3876 196 3680 2826 218 2608 115
is_linear=0
shrinkage=0.05


Tree=71
num_leaves=8
num_cat=0
split_feature=1 0 1 1 2 0 2
split_gain=25.8078 32.542 15.3252 87.4958 25.8394 18.7126 7.12029
threshold=13.000000000000002 96.500000000000014 1770.5000000000002 1473.0000000000002 0.59050000000000014 4.5000000000000009 0.10150000000000002
decision_type=2 2 2 2 2 2 2
left_child=1 6 3 5 -5 -2 -1
right_child=2 -3 -4 4 -6 -7 -8
leaf_value=0.0007861905295003524 0.00132070446182197 3.4786392509200683e-06 -0.0071199389796166778 -0.0049123971831298574 0.00031200678889685142 -6.7449672937591749e-06 -0.0010048864454103913
leaf_weight=30 23 81 854 37 181 2585 85
leaf_count=30 23 81 854 37 181 2585 85
internal_value=0 0.0194898 0.000869564 0.00264331 0.0330734 9.96921e-05 0.0023913
internal_weight=0 196 3680 2826 218 2608 115
internal_count=3876 196 3680 2826 218 2608 115
is_linear=0
shrinkage=0.05


Tree=72
num_leaves=8
num_cat=0
split_feature=1 0 1 0 0 0 2
split_gain=30.9774 32.542 9.25086 17.673 8.48026 60.1706 7.12029
threshold=13.000000000000002 96.500000000000014 1182.0000000000002 4.5000000000000009 28.500000000000004 30.500000000000004 0.10150000000000002
decision_type=2 2 2 2 2 2 2
left_child=1 6 3 -2 -5 -6 -1
right_child=2 -3 -4 4 5 -7 -8
leaf_value=0.00074688100302533478 0.0012546692387308711 3.3047072883762851e-06 -1.3264241666727239e-05 -0.00057026977783647403 0.0038264480986774929 3.0511943541866596e-06 -0.0009546421231398706
leaf_weight=30 23 81 1712 500 80 1365 85
leaf_count=30 23 81 1712 500 80 1365 85
internal_value=0 0.0194898 -0.000910327 0.00142784 0.000912595 0.00285467 0.0023913
internal_weight=0 196 3680 1968 1945 1445 115
internal_count=3876 196 3680 1968 1945 1445 115
is_linear=0
shrinkage=0.05


Tree=73
num_leaves=8
num_cat=0
split_feature=1 0 1 0 0 0 2
split_gain=30.9774 32.542 9.25086 17.673 8.48026 60.1706 7.12029
threshold=13.000000000000002 96.500000000000014 1182.0000000000002 4.5000000000000009 28.500000000000004 30.500000000000004 0.10150000000000002
decision_type=2 2 2 2 2 2 2
left_child=1 6 3 -2 -5 -6 -1
right_child=2 -3 -4 4 5 -7 -8
leaf_value=0.00070953695287406804 0.0011919357767943284 3.1394719239630223e-06 -1.2601029583392265e-05 -0.00054175628894465033 0.0036351256937436241 2.8986346364778815e-06 -0.00090691001698287596
leaf_weight=30 23 81 1712 500 80 1365 85
leaf_count=30 23 81 1712 500 80 1365 85
internal_value=0 0.0194898 -0.000910327 0.00142784 0.000912595 0.00285467 0.0023913
internal_weight=0 196 3680 1968 1945 1445 115
internal_count=3876 196 3680 1968 1945 1445 115
is_linear=0
shrinkage=0.05


Tree=74
num_leaves=8
num_cat=0
split_feature=1 0 1 0 0 0 2
split_gain=30.9774 32.542 9.25086 17.673 8.48026 60.1706 7.12029
threshold=13.000000000000002 96.500000000000014 1182.0000000000002 4.5000000000000009 28.500000000000004 30.500000000000004 0.10150000000000002
decision_type=2 2 2 2 2 2 2
left_child=1 6 3 -2 -5 -6 -1
right_child=2 -3 -4 4 5 -7 -8
leaf_value=0.00067406010523036748 0.0011323389879546121 2.9824983277637609e-06 -1.1970978104225428e-05 -0.00051466847449741502 0.0034533694090564393 2.7537029046564856e-06 -0.0008615645161337282
leaf_weight=30 23 81 1712 500 80 1365 85
leaf_count=30 23 81 1712 500 80 1365 85
internal_value=0 0.0194898 -0.000910327 0.00142784 0.000912595 0.00285467 0.0023913
internal_weight=0 196 3680 1968 1945 1445 115
internal_count=3876 196 3680 1968 1945 1445 115
is_linear=0
shrinkage=0.05


Tree=75
num_leaves=8
num_cat=0
split_feature=1 0 1 1 2 1 1
split_gain=31.5578 32.542 9.16178 16.7935 12.6667 9.1508 58.0466
threshold=13.000000000000002 96.500000000000014 906.00000000000011 882.00000000000011 0.9910000000000001 234.50000000000003 237.50000000000003
decision_type=2 2 2 2 2 2 2
left_child=1 -1 3 5 -5 -2 -7
right_child=2 -3 -4 4 -6 6 -8
leaf_value=0.00064035709996884682 -0.0016985023419815505 2.833373411370577e-06 -1.3906511082739659e-05 6.5857677123748459e-05 -6.8428955238342141e-06 0.0032807009386036203 -1.7745652054516644e-05
leaf_weight=115 851 81 2030 38 19 80 662
leaf_count=115 851 81 2030 38 19 80 662
internal_value=0 0.0194898 -0.00110054 0.00166667 0.0283333 0.000712491 0.00477089
internal_weight=0 196 3680 1650 57 1593 742
internal_count=3876 196 3680 1650 57 1593 742
is_linear=0
shrinkage=0.05


Tree=76
num_leaves=8
num_cat=0
split_feature=1 0 1 1 2 1 1
split_gain=30.3616 32.542 12.6529 15.7049 12.6667 10.158 39.1556
threshold=13.000000000000002 96.500000000000014 906.00000000000011 882.00000000000011 0.9910000000000001 189.00000000000003 237.50000000000003
decision_type=2 2 2 2 2 2 2
left_child=1 -1 3 5 -5 -2 -7
right_child=2 -3 -4 4 -6 6 -8
leaf_value=0.00060833924497040177 -0.0016956875682929086 2.6917047407981624e-06 -1.3211185528605451e-05 6.2564793267561034e-05 -6.5007507476400052e-06 0.0031166658916734428 -1.6858369451792673e-05
leaf_weight=115 759 81 2030 38 19 172 662
leaf_count=115 759 81 2030 38 19 172 662
internal_value=0 0.0194898 -0.000706523 0.00254545 0.0283333 0.00162272 0.00543165
internal_weight=0 196 3680 1650 57 1593 834
internal_count=3876 196 3680 1650 57 1593 834
is_linear=0
shrinkage=0.05


Tree=77
num_leaves=8
num_cat=0
split_feature=1 0 1 1 2 1 1
split_gain=31.5578 32.542 9.16178 16.7935 12.6667 9.1508 58.0466
threshold=13.000000000000002 96.500000000000014 906.00000000000011 882.00000000000011 0.9910000000000001 234.50000000000003 237.50000000000003
decision_type=2 2 2 2 2 2 2
left_child=1 -1 3 5 -5 -2 -7
right_child=2 -3 -4 4 -6 6 -8
leaf_value=0.00057792228272187665 -0.0015287928464678302 2.5571195037543681e-06 -1.2550626252172404e-05 5.9436553604180765e-05 -6.1757132102602257e-06 0.0029608325970897687 -1.6015450979204899e-05
leaf_weight=115 851 81 2030 38 19 80 662
leaf_count=115 851 81 2030 38 19 80 662
internal_value=0 0.0194898 -0.00110054 0.00166667 0.0283333 0.000712491 0.00477089
internal_weight=0 196 3680 1650 57 1593 742
internal_count=3876 196 3680 1650 57 1593 742
is_linear=0
shrinkage=0.05


Tree=78
num_leaves=8
num_cat=0
split_feature=1 0 1 1 2 1 1
split_gain=30.3616 32.542 12.6529 15.7049 12.6667 10.158 39.1556
threshold=13.000000000000002 96.500000000000014 906.00000000000011 882.00000000000011 0.9910000000000001 189.00000000000003 237.50000000000003
decision_type=2 2 2 2 2 2 2
left_child=1 -1 3 5 -5 -2 -7
right_child=2 -3 -4 4 -6 6 -8
leaf_value=0.0005490261685857867 -0.0015344635475548762 2.4292635285694255e-06 -1.1923094939564339e-05 5.6464725923971454e-05 -5.8669275497469369e-06 0.0028127909672352792 -1.5214678430245961e-05
leaf_weight=115 759 81 2030 38 19 172 662
leaf_count=115 759 81 2030 38 19 172 662
internal_value=0 0.0194898 -0.000706523 0.00254545 0.0283333 0.00162272 0.00543165
internal_weight=0 196 3680 1650 57 1593 834
internal_count=3876 196 3680 1650 57 1593 834
is_linear=0
shrinkage=0.05


Tree=79
num_leaves=8
num_cat=0
split_feature=1 0 2 0 1 1 2
split_gain=32.7772 32.542 7.12029 7.36667 6.44218 18.1056 8.57314
threshold=13.000000000000002 96.500000000000014 0.10150000000000002 89.500000000000014 862.00000000000011 818.00000000000011 1.1955000000000002
decision_type=2 2 2 2 2 2 2
left_child=1 2 3 -1 5 6 -2
right_child=4 -3 -4 -5 -6 -7 -8
leaf_value=0.00052157486015649292 -0.00013632747443599326 2.3078003521415093e-06 -0.00093726853013939018 -0.0017931332026933312 -8.7928583088536797e-06 8.8018068715639552e-05 0.0034711134380987388
leaf_weight=17 1358 81 85 13.000000000000002 2139 23 160
leaf_count=17 1358 81 85 13 2139 23 160
internal_value=0 0.0194898 0.0023913 0.0233333 -0.00149457 0.000970148 0.000303029
internal_weight=0 196 115 30 3680 1541 1518
internal_count=3876 196 115 30 3680 1541 1518
is_linear=0
shrinkage=0.05


Tree=80
num_leaves=8
num_cat=0
split_feature=1 0 1 1 2 1 1
split_gain=31.85 32.542 8.40335 17.0617 12.6667 8.04973 59.4158
threshold=13.000000000000002 96.500000000000014 906.00000000000011 882.00000000000011 0.9910000000000001 234.50000000000003 237.50000000000003
decision_type=2 2 2 2 2 2 2
left_child=1 -1 3 5 -5 -2 -7
right_child=2 -3 -4 4 -6 6 -8
leaf_value=0.00049549611714866382 -0.0013688136530448924 2.1924103345338785e-06 -1.0887297277140107e-05 5.4081132543215565e-05 -5.1339382568127425e-06 0.0026789677925953105 -0.00014028266011757441
leaf_weight=115 851 81 2030 38 19 80 662
leaf_count=115 851 81 2030 38 19 80 662
internal_value=0 0.0194898 -0.00119565 0.00145454 0.0283333 0.00049278 0.00429919
internal_weight=0 196 3680 1650 57 1593 742
internal_count=3876 196 3680 1650 57 1593 742
is_linear=0
shrinkage=0.05


Tree=81
num_leaves=8
num_cat=0
split_feature=1 0 2 0 1 1 0
split_gain=33.1603 32.542 7.12029 7.36667 5.7753 31.8113 35.223
threshold=13.000000000000002 96.500000000000014 0.10150000000000002 89.500000000000014 552.00000000000011 234.50000000000003 30.500000000000004
decision_type=2 2 2 2 2 2 2
left_child=1 2 3 -1 5 -2 -7
right_child=4 -3 -4 -5 -6 6 -8
leaf_value=0.00047072131129123341 -0.0013003729703926492 2.0827898178032989e-06 -0.00091517990948984944 -0.001728251348416099 -7.8088505295503829e-06 0.0025450194029655428 0.0056685961279357103
leaf_weight=17 851 81 85 13.000000000000002 2617 80 132
leaf_count=17 851 81 85 13 2617 80 132
internal_value=0 0.0194898 0.0023913 0.0233333 -0.00161685 0.00149106 0.0188208
internal_weight=0 196 115 30 3680 1063 212
internal_count=3876 196 115 30 3680 1063 212
is_linear=0
shrinkage=0.05


Tree=82
num_leaves=8
num_cat=0
split_feature=1 0 1 1 0 2 0
split_gain=31.9338 32.542 9.9431 31.1597 43.4379 7.12029 7.36667
threshold=13.000000000000002 96.500000000000014 552.00000000000011 189.00000000000003 30.500000000000004 0.10150000000000002 89.500000000000014
decision_type=2 2 2 2 2 2 2
left_child=1 5 3 -2 -5 6 -1
right_child=2 -3 -4 4 -6 -7 -8
leaf_value=0.00044718524572666678 -0.0013174646652834522 1.9786503269170197e-06 -7.4184080030736956e-06 0.0024177684328172688 0.005385166321538926 -0.00086942091401536197 -0.0016418387809952974
leaf_weight=17 759 81 2617 123 181 85 13.000000000000002
leaf_count=17 759 81 2617 123 181 85 13
internal_value=0 0.0194898 -0.00122283 0.00285513 0.0163816 0.0023913 0.0233333
internal_weight=0 196 3680 1063 304 115 30
internal_count=3876 196 3680 1063 304 115 30
is_linear=0
shrinkage=0.05


Tree=83
num_leaves=8
num_cat=0
split_feature=1 0 2 0 1 1 0
split_gain=33.1603 32.542 7.12029 7.36667 5.7753 31.8113 35.223
threshold=13.000000000000002 96.500000000000014 0.10150000000000002 89.500000000000014 552.00000000000011 234.50000000000003 30.500000000000004
decision_type=2 2 2 2 2 2 2
left_child=1 2 3 -1 5 -2 -7
right_child=4 -3 -4 -5 -6 6 -8
leaf_value=0.00042482598344033566 -0.0011694810886088425 1.8797178105711687e-06 -0.00082594986831459056 -0.0015597468419455307 -7.0474876029180681e-06 0.0022968800111764056 0.0051159080054619778
leaf_weight=17 851 81 85 13.000000000000002 2617 80 132
leaf_count=17 851 81 85 13 2617 80 132
internal_value=0 0.0194898 0.0023913 0.0233333 -0.00161685 0.00149106 0.0188208
internal_weight=0 196 115 30 3680 1063 212
internal_count=3876 196 115 30 3680 1063 212
is_linear=0
shrinkage=0.05


Tree=84
num_leaves=8
num_cat=0
split_feature=1 0 2 0 1 1 0
split_gain=33.1603 32.542 7.12029 7.36667 5.7753 31.8113 35.223
threshold=13.000000000000002 96.500000000000014 0.10150000000000002 89.500000000000014 552.00000000000011 234.50000000000003 30.500000000000004
decision_type=2 2 2 2 2 2 2
left_child=1 2 3 -1 5 -2 -7
right_child=4 -3 -4 -5 -6 6 -8
leaf_value=0.00040358468426832106 -0.0011110070341784019 1.785731920045386e-06 -0.00078465237489886439 -0.0014817594998482566 -6.6951132227710545e-06 0.0021820360106175828 0.0048601126051888823
leaf_weight=17 851 81 85 13.000000000000002 2617 80 132
leaf_count=17 851 81 85 13 2617 80 132
internal_value=0 0.0194898 0.0023913 0.0233333 -0.00161685 0.00149106 0.0188208
internal_weight=0 196 115 30 3680 1063 212
internal_count=3876 196 115 30 3680 1063 212
is_linear=0
shrinkage=0.05


Tree=85
num_leaves=8
num_cat=0
split_feature=1 0 2 0 1 1 0
split_gain=33.1603 32.542 7.12029 7.36667 5.7753 31.8113 35.223
threshold=13.000000000000002 96.500000000000014 0.10150000000000002 89.500000000000014 552.00000000000011 234.50000000000003 30.500000000000004
decision_type=2 2 2 2 2 2 2
left_child=1 2 3 -1 5 -2 -7
right_child=4 -3 -4 -5 -6 6 -8
leaf_value=0.0003834054500549078 -0.00105545668246948 1.696445324039786e-06 -0.00074541975615392006 -0.001407671524855847 -6.3603575616300034e-06 0.0020729342100867078 0.0046171069749294412
leaf_weight=17 851 81 85 13.000000000000002 2617 80 132
leaf_count=17 851 81 85 13 2617 80 132
internal_value=0 0.0194898 0.0023913 0.0233333 -0.00161685 0.00149106 0.0188208
internal_weight=0 196 115 30 3680 1063 212
internal_count=3876 196 115 30 3680 1063 212
is_linear=0
shrinkage=0.05


Tree=86
num_leaves=8
num_cat=0
split_feature=1 0 1 1 0 2 0
split_gain=31.9338 32.542 9.9431 31.1597 43.4379 7.12029 7.36667
threshold=13.000000000000002 96.500000000000014 552.00000000000011 189.00000000000003 30.500000000000004 0.10150000000000002 89.500000000000014
decision_type=2 2 2 2 2 2 2
left_child=1 5 3 -2 -5 6 -1
right_child=2 -3 -4 4 -6 -7 -8
leaf_value=0.00036423517755216354 -0.0010847941917564441 1.611623057840017e-06 -6.0423396835485036e-06 0.001969287499582373 0.0043862516261829691 -0.00070814876834622846 -0.0013372879486130531
leaf_weight=17 759 81 2617 123 181 85 13.000000000000002
leaf_count=17 759 81 2617 123 181 85 13
internal_value=0 0.0194898 -0.00122283 0.00285513 0.0163816 0.0023913 0.0233333
internal_weight=0 196 3680 1063 304 115 30
internal_count=3876 196 3680 1063 304 115 30
is_linear=0
shrinkage=0.05


Tree=87
num_leaves=8
num_cat=0
split_feature=1 0 2 0 1 1 0
split_gain=33.1603 32.542 7.12029 7.36667 5.7753 31.8113 35.223
threshold=13.000000000000002 96.500000000000014 0.10150000000000002 89.500000000000014 552.00000000000011 234.50000000000003 30.500000000000004
decision_type=2 2 2 2 2 2 2
left_child=1 2 3 -1 5 -2 -7
right_child=4 -3 -4 -5 -6 6 -8
leaf_value=0.00034602341867455704 -0.00094844413875818658 1.5310419049452407e-06 -0.00067274132992891646 -0.001270423551182398 -5.7402226993685804e-06 0.0018708231246032494 0.0041669390448738188
leaf_weight=17 851 81 85 13.000000000000002 2617 80 132
leaf_count=17 851 81 85 13 2617 80 132
internal_value=0 0.0194898 0.0023913 0.0233333 -0.00161685 0.00149106 0.0188208
internal_weight=0 196 115 30 3680 1063 212
internal_count=3876 196 115 30 3680 1063 212
is_linear=0
shrinkage=0.05


Tree=88
num_leaves=8
num_cat=0
split_feature=1 0 1 1 2 1 1
split_gain=31.85 32.542 8.40335 17.0617 12.6667 8.04973 59.4158
threshold=13.000000000000002 96.500000000000014 906.00000000000011 882.00000000000011 0.9910000000000001 234.50000000000003 237.50000000000003
decision_type=2 2 2 2 2 2 2
left_child=1 -1 3 5 -5 -2 -7
right_child=2 -3 -4 4 -6 6 -8
leaf_value=0.00032872224774083136 -0.00090102193182027839 1.4544898096935379e-06 -7.9872934481306511e-06 5.3732714881205014e-05 -2.5216023788188213e-06 0.0017772819683730902 -0.0001309128881465449
leaf_weight=115 851 81 2030 38 19 80 662
leaf_count=115 851 81 2030 38 19 80 662
internal_value=0 0.0194898 -0.00119565 0.00145454 0.0283333 0.00049278 0.00429919
internal_weight=0 196 3680 1650 57 1593 742
internal_count=3876 196 3680 1650 57 1593 742
is_linear=0
shrinkage=0.05


Tree=89
num_leaves=8
num_cat=0
split_feature=1 0 1 1 0 2 0
split_gain=31.9338 32.542 9.9431 31.1597 43.4379 7.12029 7.36667
threshold=13.000000000000002 96.500000000000014 552.00000000000011 189.00000000000003 30.500000000000004 0.10150000000000002 89.500000000000014
decision_type=2 2 2 2 2 2 2
left_child=1 5 3 -2 -5 6 -1
right_child=2 -3 -4 4 -6 -7 -8
leaf_value=0.00031228613535378981 -0.00093808117863969928 1.3817653192083059e-06 -5.053846891994729e-06 0.0016884178699544394 0.0039651377370374611 -0.00065554037581950781 -0.0012233384860103171
leaf_weight=17 759 81 2617 123 181 85 13.000000000000002
leaf_count=17 759 81 2617 123 181 85 13
internal_value=0 0.0194898 -0.00122283 0.00285513 0.0163816 0.0023913 0.0233333
internal_weight=0 196 3680 1063 304 115 30
internal_count=3876 196 3680 1063 304 115 30
is_linear=0
shrinkage=0.05


Tree=90
num_leaves=8
num_cat=0
split_feature=1 0 2 0 1 1 0
split_gain=33.1603 32.542 7.12029 7.36667 5.7753 31.8113 35.223
threshold=13.000000000000002 96.500000000000014 0.10150000000000002 89.500000000000014 552.00000000000011 234.50000000000003 30.500000000000004
decision_type=2 2 2 2 2 2 2
left_child=1 2 3 -1 5 -2 -7
right_child=4 -3 -4 -5 -6 6 -8
leaf_value=0.00029667182858610368 -0.00080906677629727928 1.3126770532445598e-06 -0.00062276335702853296 -0.0011621715617098018 -4.8011545473958255e-06 0.0016039969764567231 0.0037668808501855836
leaf_weight=17 851 81 85 13.000000000000002 2617 80 132
leaf_count=17 851 81 85 13 2617 80 132
internal_value=0 0.0194898 0.0023913 0.0233333 -0.00161685 0.00149106 0.0188208
internal_weight=0 196 115 30 3680 1063 212
internal_count=3876 196 115 30 3680 1063 212
is_linear=0
shrinkage=0.05


Tree=91
num_leaves=8
num_cat=0
split_feature=1 0 2 0 1 1 0
split_gain=33.1603 32.542 7.12029 7.36667 5.7753 31.8113 35.223
threshold=13.000000000000002 96.500000000000014 0.10150000000000002 89.500000000000014 552.00000000000011 234.50000000000003 30.500000000000004
decision_type=2 2 2 2 2 2 2
left_child=1 2 3 -1 5 -2 -7
right_child=4 -3 -4 -5 -6 6 -8
leaf_value=0.00028183823715679515 -0.00076861343748241273 1.2470432005806666e-06 -0.00059162518917710294 -0.0011040629836243099 -4.5610968200271442e-06 0.0015237971276338858 0.0035785368076763028
leaf_weight=17 851 81 85 13.000000000000002 2617 80 132
leaf_count=17 851 81 85 13 2617 80 132
internal_value=0 0.0194898 0.0023913 0.0233333 -0.00161685 0.00149106 0.0188208
internal_weight=0 196 115 30 3680 1063 212
internal_count=3876 196 115 30 3680 1063 212
is_linear=0
shrinkage=0.05


Tree=92
num_leaves=8
num_cat=0
split_feature=1 0 1 1 0 2 0
split_gain=31.9338 32.542 9.9431 31.1597 43.4379 7.12029 7.36667
threshold=13.000000000000002 96.500000000000014 552.00000000000011 189.00000000000003 30.500000000000004 0.10150000000000002 89.500000000000014
decision_type=2 2 2 2 2 2 2
left_child=1 5 3 -2 -5 6 -1
right_child=2 -3 -4 4 -6 -7 -8
leaf_value=0.00026774632529895647 -0.00081229310901872467 1.1846910405566291e-06 -4.3330419790266195e-06 0.0014476072712521937 0.0033996099672924831 -0.00056204392971824784 -0.0010488598344430943
leaf_weight=17 759 81 2617 123 181 85 13.000000000000002
leaf_count=17 759 81 2617 123 181 85 13
internal_value=0 0.0194898 -0.00122283 0.00285513 0.0163816 0.0023913 0.0233333
internal_weight=0 196 3680 1063 304 115 30
internal_count=3876 196 3680 1063 304 115 30
is_linear=0
shrinkage=0.05


Tree=93
num_leaves=8
num_cat=0
split_feature=1 0 2 0 1 1 0
split_gain=33.1603 32.542 7.12029 7.36667 5.7753 31.8113 35.223
threshold=13.000000000000002 96.500000000000014 0.10150000000000002 89.500000000000014 552.00000000000011 234.50000000000003 30.500000000000004
decision_type=2 2 2 2 2 2 2
left_child=1 2 3 -1 5 -2 -7
right_child=4 -3 -4 -5 -6 6 -8
leaf_value=0.00025435900903401091 -0.00068956811015735144 1.1254564885265773e-06 -0.00053394173323233489 -0.00099641684272093749 -4.1163898800766766e-06 0.0013752269076895863 0.0032296294689278639
leaf_weight=17 851 81 85 13.000000000000002 2617 80 132
leaf_count=17 851 81 85 13 2617 80 132
internal_value=0 0.0194898 0.0023913 0.0233333 -0.00161685 0.00149106 0.0188208
internal_weight=0 196 115 30 3680 1063 212
internal_count=3876 196 115 30 3680 1063 212
is_linear=0
shrinkage=0.05


Tree=94
num_leaves=8
num_cat=0
split_feature=1 0 1 1 0 2 0
split_gain=31.9338 32.542 9.9431 31.1597 43.4379 7.12029 7.36667
threshold=13.000000000000002 96.500000000000014 552.00000000000011 189.00000000000003 30.500000000000004 0.10150000000000002 89.500000000000014
decision_type=2 2 2 2 2 2 2
left_child=1 5 3 -2 -5 6 -1
right_child=2 -3 -4 4 -6 -7 -8
leaf_value=0.00024164105858230924 -0.00073720004805992174 1.0691836641041341e-06 -3.9105703860731204e-06 0.0013064655623051037 0.003068147995481474 -0.00050724464657071484 -0.00094659600058488724
leaf_weight=17 759 81 2617 123 181 85 13.000000000000002
leaf_count=17 759 81 2617 123 181 85 13
internal_value=0 0.0194898 -0.00122283 0.00285513 0.0163816 0.0023913 0.0233333
internal_weight=0 196 3680 1063 304 115 30
internal_count=3876 196 3680 1063 304 115 30
is_linear=0
shrinkage=0.05


Tree=95
num_leaves=8
num_cat=0
split_feature=1 0 2 0 1 1 0
split_gain=33.1603 32.542 7.12029 7.36667 5.7753 31.8113 35.223
threshold=13.000000000000002 96.500000000000014 0.10150000000000002 89.500000000000014 552.00000000000011 234.50000000000003 30.500000000000004
decision_type=2 2 2 2 2 2 2
left_child=1 2 3 -1 5 -2 -7
right_child=4 -3 -4 -5 -6 6 -8
leaf_value=0.00022955900565319043 -0.00061822970224649227 1.0157244809017029e-06 -0.00048188241424217408 -0.0008992662005556485 -3.7150418667697417e-06 0.0012411422841898446 0.0029147405957073991
leaf_weight=17 851 81 85 13.000000000000002 2617 80 132
leaf_count=17 851 81 85 13 2617 80 132
internal_value=0 0.0194898 0.0023913 0.0233333 -0.00161685 0.00149106 0.0188208
internal_weight=0 196 115 30 3680 1063 212
internal_count=3876 196 115 30 3680 1063 212
is_linear=0
shrinkage=0.05


Tree=96
num_leaves=8
num_cat=0
split_feature=1 0 2 0 1 1 0
split_gain=33.1603 32.542 7.12029 7.36667 5.7753 31.8113 35.223
threshold=13.000000000000002 96.500000000000014 0.10150000000000002 89.500000000000014 552.00000000000011 234.50000000000003 30.500000000000004
decision_type=2 2 2 2 2 2 2
left_child=1 2 3 -1 5 -2 -7
right_child=4 -3 -4 -5 -6 6 -8
leaf_value=0.00021808105537053369 -0.00058731821713416956 9.6493825685328716e-07 -0.00045778829353007036 -0.00085430289052786936 -3.5292897734295892e-06 0.0011790851699803541 0.0027690035659220236
leaf_weight=17 851 81 85 13.000000000000002 2617 80 132
leaf_count=17 851 81 85 13 2617 80 132
internal_value=0 0.0194898 0.0023913 0.0233333 -0.00161685 0.00149106 0.0188208
internal_weight=0 196 115 30 3680 1063 212
internal_count=3876 196 115 30 3680 1063 212
is_linear=0
shrinkage=0.05


Tree=97
num_leaves=8
num_cat=0
split_feature=1 0 2 0 1 1 0
split_gain=33.1603 32.542 7.12029 7.36667 5.7753 31.8113 35.223
threshold=13.000000000000002 96.500000000000014 0.10150000000000002 89.500000000000014 552.00000000000011 234.50000000000003 30.500000000000004
decision_type=2 2 2 2 2 2 2
left_child=1 2 3 -1 5 -2 -7
right_child=4 -3 -4 -5 -6 6 -8
leaf_value=0.00020717700260201033 -0.00055795230627745946 9.1669134401062284e-07 -0.00043489887885356238 -0.00081158774600147425 -3.3528252847581099e-06 0.0011201309114813318 0.0026305533876259226
leaf_weight=17 851 81 85 13.000000000000002 2617 80 132
leaf_count=17 851 81 85 13 2617 80 132
internal_value=0 0.0194898 0.0023913 0.0233333 -0.00161685 0.00149106 0.0188208
internal_weight=0 196 115 30 3680 1063 212
internal_count=3876 196 115 30 3680 1063 212
is_linear=0
shrinkage=0.05


Tree=98
num_leaves=8
num_cat=0
split_feature=1 0 1 1 0 2 0
split_gain=31.9338 32.542 9.9431 31.1597 43.4379 7.12029 7.36667
threshold=13.000000000000002 96.500000000000014 552.00000000000011 189.00000000000003 30.500000000000004 0.10150000000000002 89.500000000000014
decision_type=2 2 2 2 2 2 2
left_child=1 5 3 -2 -5 6 -1
right_child=2 -3 -4 4 -6 -7 -8
leaf_value=0.00019681815247191148 -0.00061216503437402372 8.7085677681342237e-07 -3.1851840205210371e-06 0.0010641243659072596 0.0024990257182446298 -0.00041315393491088149 -0.00077100835870139725
leaf_weight=17 759 81 2617 123 181 85 13.000000000000002
leaf_count=17 759 81 2617 123 181 85 13
internal_value=0 0.0194898 -0.00122283 0.00285513 0.0163816 0.0023913 0.0233333
internal_weight=0 196 3680 1063 304 115 30
internal_count=3876 196 3680 1063 304 115 30
is_linear=0
shrinkage=0.05


Tree=99
num_leaves=8
num_cat=0
split_feature=1 0 2 0 1 1 0
split_gain=33.1603 32.542 7.12029 7.36667 5.7753 31.8113 35.223
threshold=13.000000000000002 96.500000000000014 0.10150000000000002 89.500000000000014 552.00000000000011 234.50000000000003 30.500000000000004
decision_type=2 2 2 2 2 2 2
left_child=1 2 3 -1 5 -2 -7
right_child=4 -3 -4 -5 -6 6 -8
leaf_value=0.00018697724484831869 -0.0005774470088622752 8.2731393796775521e-07 -0.00039249623816534074 -0.00073245794076632904 -3.0259248194941527e-06 0.0010109181476118945 0.0023740744323323959
leaf_weight=17 851 81 85 13.000000000000002 2617 80 132
leaf_count=17 851 81 85 13 2617 80 132
internal_value=0 0.0194898 0.0023913 0.0233333 -0.00161685 0.00149106 0.0188208
internal_weight=0 196 115 30 3680 1063 212
internal_count=3876 196 115 30 3680 1063 212
is_linear=0
shrinkage=0.05


Tree=100
num_leaves=8
num_cat=0
split_feature=1 0 2 0 1 1 0
split_gain=33.1603 32.542 7.12029 7.36667 5.7753 31.8113 35.223
threshold=13.000000000000002 96.500000000000014 0.10150000000000002 89.500000000000014 552.00000000000011 234.50000000000003 30.500000000000004
decision_type=2 2 2 2 2 2 2
left_child=1 2 3 -1 5 -2 -7
right_child=4 -3 -4 -5 -6 6 -8
leaf_value=0.00017762838260589888 -0.00054857465841916535 7.8594824106659198e-07 -0.00037287142625707097 -0.00069583504372801037 -2.8746285785197226e-06 0.00096037224023129983 0.0022553707107157762
leaf_weight=17 851 81 85 13.000000000000002 2617 80 132
leaf_count=17 851 81 85 13 2617 80 132
internal_value=0 0.0194898 0.0023913 0.0233333 -0.00161685 0.00149106 0.0188208
internal_weight=0 196 115 30 3680 1063 212
internal_count=3876 196 115 30 3680 1063 212
is_linear=0
shrinkage=0.05


Tree=101
num_leaves=8
num_cat=0
split_feature=1 0 1 1 0 2 0
split_gain=31.9338 32.542 9.9431 31.1597 43.4379 7.12029 7.36667
threshold=13.000000000000002 96.500000000000014 552.00000000000011 189.00000000000003 30.500000000000004 0.10150000000000002 89.500000000000014
decision_type=2 2 2 2 2 2 2
left_child=1 5 3 -2 -5 6 -1
right_child=2 -3 -4 4 -6 -7 -8
leaf_value=0.00016874696347560781 -0.00052525569929124944 7.4665082900882145e-07 -2.7308971495942916e-06 0.00091235362821973087 0.0021426021751799864 -0.00035422785494422239 -0.00066104329154160763
leaf_weight=17 759 81 2617 123 181 85 13.000000000000002
leaf_count=17 759 81 2617 123 181 85 13
internal_value=0 0.0194898 -0.00122283 0.00285513 0.0163816 0.0023913 0.0233333
internal_weight=0 196 3680 1063 304 115 30
internal_count=3876 196 3680 1063 304 115 30
is_linear=0
shrinkage=0.05


Tree=102
num_leaves=8
num_cat=0
split_feature=1 0 1 1 1 2 0
split_gain=32.3541 32.542 7.22018 9.51125 57.4748 7.12029 7.36667
threshold=13.000000000000002 96.500000000000014 970.50000000000011 234.50000000000003 237.50000000000003 0.10150000000000002 89.500000000000014
decision_type=2 2 2 2 2 2 2
left_child=1 5 3 -2 -5 6 -1
right_child=2 -3 -4 4 -6 -7 -8
leaf_value=0.00016030961530182354 -0.00049899291432668475 7.0931828756171105e-07 -5.1284341758439657e-06 0.00086673594680874988 6.3972340003104483e-08 -0.00033651646219701181 -0.00062799112696452228
leaf_weight=17 851 81 1928 80 821 85 13.000000000000002
leaf_count=17 851 81 1928 80 821 85 13
internal_value=0 0.0194898 -0.0013587 0.000964611 0.00454495 0.0023913 0.0233333
internal_weight=0 196 3680 1752 901 115 30
internal_count=3876 196 3680 1752 901 115 30
is_linear=0
shrinkage=0.05


Tree=103
num_leaves=8
num_cat=0
split_feature=1 0 1 1 1 0 1
split_gain=31.1427 32.542 10.3021 11.5489 37.0834 27.5179 10.4626
threshold=13.000000000000002 96.500000000000014 906.00000000000011 189.00000000000003 237.50000000000003 108.50000000000001 818.00000000000011
decision_type=2 2 2 2 2 2 2
left_child=1 -1 3 -2 5 -5 -6
right_child=2 -3 -4 4 6 -7 -8
leaf_value=0.00015229413453673459 -0.00047404326861035244 6.7385237317862945e-07 -4.8720124670498247e-06 0.00082339914946831798 -0.00012191094775633183 -0.024590783232193339 5.35023751200292e-05
leaf_weight=115 759 81 2030 123 587 49 132
leaf_count=115 759 81 2030 123 587 49 132
internal_value=0 0.0194898 -0.000964675 0.0019697 0.00583053 0.026686 0.000841445
internal_weight=0 196 3680 1650 891 172 719
internal_count=3876 196 3680 1650 891 172 719
is_linear=0
shrinkage=0.05


Tree=104
num_leaves=8
num_cat=0
split_feature=1 0 2 0 1 1 0
split_gain=33.1603 32.542 7.12029 7.36667 5.7753 31.8113 35.223
threshold=13.000000000000002 96.500000000000014 0.10150000000000002 89.500000000000014 552.00000000000011 234.50000000000003 30.500000000000004
decision_type=2 2 2 2 2 2 2
left_child=1 2 3 -1 5 -2 -7
right_child=4 -3 -4 -5 -6 6 -8
leaf_value=0.00014467942780990172 -0.00045034110517983564 6.4015975451692244e-07 -0.00032730534581399963 -0.00060420627734313341 -2.8291720120088295e-06 0.00078222919199489877 0.002041564415191799
leaf_weight=17 851 81 85 13.000000000000002 2617 80 132
leaf_count=17 851 81 85 13 2617 80 132
internal_value=0 0.0194898 0.0023913 0.0233333 -0.00161685 0.00149106 0.0188208
internal_weight=0 196 115 30 3680 1063 212
internal_count=3876 196 115 30 3680 1063 212
is_linear=0
shrinkage=0.05


Tree=105
num_leaves=8
num_cat=0
split_feature=1 0 2 0 1 1 0
split_gain=33.1603 32.542 7.12029 7.36667 5.7753 31.8113 35.223
threshold=13.000000000000002 96.500000000000014 0.10150000000000002 89.500000000000014 552.00000000000011 234.50000000000003 30.500000000000004
decision_type=2 2 2 2 2 2 2
left_child=1 2 3 -1 5 -2 -7
right_child=4 -3 -4 -5 -6 6 -8
leaf_value=0.00013744545641940499 -0.00042782404992084414 6.0815176678996612e-07 -0.00031094007852330299 -0.00057399596347598172 -2.687713411408943e-06 0.00074311773239514882 0.0019394861944322052
leaf_weight=17 851 81 85 13.000000000000002 2617 80 132
leaf_count=17 851 81 85 13 2617 80 132
internal_value=0 0.0194898 0.0023913 0.0233333 -0.00161685 0.00149106 0.0188208
internal_weight=0 196 115 30 3680 1063 212
internal_count=3876 196 115 30 3680 1063 212
is_linear=0
shrinkage=0.05


Tree=106
num_leaves=8
num_cat=0
split_feature=1 0 2 0 1 1 2
split_gain=32.9472 32.542 7.12029 7.36667 6.41361 19.5272 24.2975
threshold=13.000000000000002 96.500000000000014 0.10150000000000002 89.500000000000014 552.00000000000011 189.00000000000003 0.46450000000000008
decision_type=2 2 2 2 2 2 2
left_child=1 2 3 -1 5 -2 -7
right_child=4 -3 -4 -5 -6 6 -8
leaf_value=0.00013057318359843695 -0.00040643284742480359 5.7774417845379848e-07 -0.00029539307459713893 -0.00054529616530217821 -2.5533277408396062e-06 0.001842511884710596 -3.7007925557863702e-05
leaf_weight=17 759 81 85 13.000000000000002 2617 180 124
leaf_count=17 759 81 85 13 2617 180 124
internal_value=0 0.0194898 0.0023913 0.0233333 -0.00154891 0.00172625 0.0124342
internal_weight=0 196 115 30 3680 1063 304
internal_count=3876 196 115 30 3680 1063 304
is_linear=0
shrinkage=0.05


Tree=107
num_leaves=8
num_cat=0
split_feature=1 0 2 0 1 1 1
split_gain=34.1928 32.542 7.12029 7.36667 4.15722 30.0204 3.34826
threshold=13.000000000000002 96.500000000000014 0.10150000000000002 89.500000000000014 1770.5000000000002 1705.0000000000002 970.50000000000011
decision_type=2 2 2 2 2 2 2
left_child=1 2 3 -1 5 6 -2
right_child=4 -3 -4 -5 -6 -7 -8
leaf_value=0.00012404452441852065 -2.2108343747884175e-06 5.4885696952888814e-07 -0.00028062342086727644 -0.00051803135703707424 -0.0067523686082708902 0.00030797987181697685 -1.6908193017584062e-06
leaf_weight=17 1752 81 85 13.000000000000002 854 35 1039
leaf_count=17 1752 81 85 13 854 35 1039
internal_value=0 0.0194898 0.0023913 0.0233333 -0.00194294 -0.00101911 -0.0015962
internal_weight=0 196 115 30 3680 2826 2791
internal_count=3876 196 115 30 3680 2826 2791
is_linear=0
shrinkage=0.05


Tree=108
num_leaves=8
num_cat=0
split_feature=1 0 2 0 1 1 1
split_gain=34.1928 32.542 7.12029 7.36667 4.15722 30.0204 3.34826
threshold=13.000000000000002 96.500000000000014 0.10150000000000002 89.500000000000014 1770.5000000000002 1705.0000000000002 970.50000000000011
decision_type=2 2 2 2 2 2 2
left_child=1 2 3 -1 5 6 -2
right_child=4 -3 -4 -5 -6 -7 -8
leaf_value=0.00011784229819759018 -2.1002926560487189e-06 5.2141412105743971e-07 -0.00026659224982391596 -0.00049212978918522499 -0.0064147501778573455 0.00029258087822612856 -1.6062783366688206e-06
leaf_weight=17 1752 81 85 13.000000000000002 854 35 1039
leaf_count=17 1752 81 85 13 854 35 1039
internal_value=0 0.0194898 0.0023913 0.0233333 -0.00194294 -0.00101911 -0.0015962
internal_weight=0 196 115 30 3680 2826 2791
internal_count=3876 196 115 30 3680 2826 2791
is_linear=0
shrinkage=0.05


Tree=109
num_leaves=8
num_cat=0
split_feature=1 0 2 0 1 1 1
split_gain=34.1928 32.542 7.12029 7.36667 4.15722 30.0204 3.34826
threshold=13.000000000000002 96.500000000000014 0.10150000000000002 89.500000000000014 1770.5000000000002 1705.0000000000002 970.50000000000011
decision_type=2 2 2 2 2 2 2
left_child=1 2 3 -1 5 6 -2
right_child=4 -3 -4 -5 -6 -7 -8
leaf_value=0.00011195018328771234 -1.9952780232479483e-06 4.9534341500789836e-07 -0.00025326263733271848 -0.00046752329972596932 -0.0060940126689644769 0.0002779518343148213 -1.5259644198351019e-06
leaf_weight=17 1752 81 85 13.000000000000002 854 35 1039
leaf_count=17 1752 81 85 13 854 35 1039
internal_value=0 0.0194898 0.0023913 0.0233333 -0.00194294 -0.00101911 -0.0015962
internal_weight=0 196 115 30 3680 2826 2791
internal_count=3876 196 115 30 3680 2826 2791
is_linear=0
shrinkage=0.05


Tree=110
num_leaves=8
num_cat=0
split_feature=1 0 2 0 1 1 1
split_gain=34.1928 32.542 7.12029 7.36667 4.15722 30.0204 3.34826
threshold=13.000000000000002 96.500000000000014 0.10150000000000002 89.500000000000014 1770.5000000000002 1705.0000000000002 970.50000000000011
decision_type=2 2 2 2 2 2 2
left_child=1 2 3 -1 5 6 -2
right_child=4 -3 -4 -5 -6 -7 -8
leaf_value=0.00010635267412332228 -1.8955141220855511e-06 4.7057624426027904e-07 -0.00024059950546608813 -0.00044414713473966971 -0.0057893120355162536 0.00026405424259908216 -1.449666198843902e-06
leaf_weight=17 1752 81 85 13.000000000000002 854 35 1039
leaf_count=17 1752 81 85 13 854 35 1039
internal_value=0 0.0194898 0.0023913 0.0233333 -0.00194294 -0.00101911 -0.0015962
internal_weight=0 196 115 30 3680 2826 2791
internal_count=3876 196 115 30 3680 2826 2791
is_linear=0
shrinkage=0.05


Tree=111
num_leaves=8
num_cat=0
split_feature=1 0 2 0 1 1 1
split_gain=34.1928 32.542 7.12029 7.36667 4.15722 30.0204 3.34826
threshold=13.000000000000002 96.500000000000014 0.10150000000000002 89.500000000000014 1770.5000000000002 1705.0000000000002 970.50000000000011
decision_type=2 2 2 2 2 2 2
left_child=1 2 3 -1 5 6 -2
right_child=4 -3 -4 -5 -6 -7 -8
leaf_value=0.00010103504041715229 -1.8007384159801633e-06 4.4704743205059574e-07 -0.00022856953019277927 -0.00042193977800268905 -0.0054998464337404412 0.00025085153046912611 -1.3771828889008743e-06
leaf_weight=17 1752 81 85 13.000000000000002 854 35 1039
leaf_count=17 1752 81 85 13 854 35 1039
internal_value=0 0.0194898 0.0023913 0.0233333 -0.00194294 -0.00101911 -0.0015962
internal_weight=0 196 115 30 3680 2826 2791
internal_count=3876 196 115 30 3680 2826 2791
is_linear=0
shrinkage=0.05


Tree=112
num_leaves=8
num_cat=0
split_feature=1 0 2 0 1 1 1
split_gain=34.1928 32.542 7.12029 7.36667 4.15722 30.0204 3.34826
threshold=13.000000000000002 96.500000000000014 0.10150000000000002 89.500000000000014 1770.5000000000002 1705.0000000000002 970.50000000000011
decision_type=2 2 2 2 2 2 2
left_child=1 2 3 -1 5 6 -2
right_child=4 -3 -4 -5 -6 -7 -8
leaf_value=9.5983288396295227e-05 -1.7107014951833754e-06 4.2469506045250682e-07 -0.00021714105368314529 -0.00040084278910255125 -0.0052248541120534179 0.00023830895394567065 -1.3083237444533324e-06
leaf_weight=17 1752 81 85 13.000000000000002 854 35 1039
leaf_count=17 1752 81 85 13 854 35 1039
internal_value=0 0.0194898 0.0023913 0.0233333 -0.00194294 -0.00101911 -0.0015962
internal_weight=0 196 115 30 3680 2826 2791
internal_count=3876 196 115 30 3680 2826 2791
is_linear=0
shrinkage=0.05


Tree=113
num_leaves=8
num_cat=0
split_feature=1 0 2 0 1 1 1
split_gain=34.1928 32.542 7.12029 7.36667 4.15722 30.0204 3.34826
threshold=13.000000000000002 96.500000000000014 0.10150000000000002 89.500000000000014 1770.5000000000002 1705.0000000000002 970.50000000000011
decision_type=2 2 2 2 2 2 2
left_child=1 2 3 -1 5 6 -2
right_child=4 -3 -4 -5 -6 -7 -8
leaf_value=9.1184123976484352e-05 -1.6251664204269824e-06 4.0346030742988149e-07 -0.00020628400099899081 -0.00038080064964742812 -0.0049636114064507469 0.00022639350624838463 -1.2429075572306659e-06
leaf_weight=17 1752 81 85 13.000000000000002 854 35 1039
leaf_count=17 1752 81 85 13 854 35 1039
internal_value=0 0.0194898 0.0023913 0.0233333 -0.00194294 -0.00101911 -0.0015962
internal_weight=0 196 115 30 3680 2826 2791
internal_count=3876 196 115 30 3680 2826 2791
is_linear=0
shrinkage=0.05


Tree=114
num_leaves=8
num_cat=0
split_feature=1 0 2 0 1 1 1
split_gain=34.1928 32.542 7.12029 7.36667 4.15722 30.0204 3.34826
threshold=13.000000000000002 96.500000000000014 0.10150000000000002 89.500000000000014 1770.5000000000002 1705.0000000000002 970.50000000000011
decision_type=2 2 2 2 2 2 2
left_child=1 2 3 -1 5 6 -2
right_child=4 -3 -4 -5 -6 -7 -8
leaf_value=8.6624917777655688e-05 -1.543908099405078e-06 3.8328729206060786e-07 -0.00019596980094903628 -0.00036176061716505228 -0.0047154308361282097 0.00021507383093596346 -1.1807621793702429e-06
leaf_weight=17 1752 81 85 13.000000000000002 854 35 1039
leaf_count=17 1752 81 85 13 854 35 1039
internal_value=0 0.0194898 0.0023913 0.0233333 -0.00194294 -0.00101911 -0.0015962
internal_weight=0 196 115 30 3680 2826 2791
internal_count=3876 196 115 30 3680 2826 2791
is_linear=0
shrinkage=0.05


Tree=115
num_leaves=8
num_cat=0
split_feature=1 0 2 0 1 1 1
split_gain=34.1928 32.542 7.12029 7.36667 4.15722 30.0204 3.34826
threshold=13.000000000000002 96.500000000000014 0.10150000000000002 89.500000000000014 1770.5000000000002 1705.0000000000002 970.50000000000011
decision_type=2 2 2 2 2 2 2
left_child=1 2 3 -1 5 6 -2
right_child=4 -3 -4 -5 -6 -7 -8
leaf_value=8.2293671888777897e-05 -1.466712694436767e-06 3.6412292745424681e-07 -0.00018617131090158391 -0.00034367258630679798 -0.0044796592943218 0.00020432013938916362 -1.1217240704020083e-06
leaf_weight=17 1752 81 85 13.000000000000002 854 35 1039
leaf_count=17 1752 81 85 13 854 35 1039
internal_value=0 0.0194898 0.0023913 0.0233333 -0.00194294 -0.00101911 -0.0015962
internal_weight=0 196 115 30 3680 2826 2791
internal_count=3876 196 115 30 3680 2826 2791
is_linear=0
shrinkage=0.05


Tree=116
num_leaves=8
num_cat=0
split_feature=1 0 2 0 1 1 1
split_gain=34.1928 32.542 7.12029 7.36667 4.15722 30.0204 3.34826
threshold=13.000000000000002 96.500000000000014 0.10150000000000002 89.500000000000014 1770.5000000000002 1705.0000000000002 970.50000000000011
decision_type=2 2 2 2 2 2 2
left_child=1 2 3 -1 5 6 -2
right_child=4 -3 -4 -5 -6 -7 -8
leaf_value=7.8178988294341786e-05 -1.3933770597163165e-06 3.4591678108597537e-07 -0.00017686274535650971 -0.00032648895699145531 -0.0042556763296057098 0.0001941041324197035 -1.0656378668816302e-06
leaf_weight=17 1752 81 85 13.000000000000002 854 35 1039
leaf_count=17 1752 81 85 13 854 35 1039
internal_value=0 0.0194898 0.0023913 0.0233333 -0.00194294 -0.00101911 -0.0015962
internal_weight=0 196 115 30 3680 2826 2791
internal_count=3876 196 115 30 3680 2826 2791
is_linear=0
shrinkage=0.05


Tree=117
num_leaves=8
num_cat=0
split_feature=1 0 2 0 1 1 0
split_gain=33.8469 32.542 7.12029 7.36667 4.3231 27.4771 9.38182
threshold=13.000000000000002 96.500000000000014 0.10150000000000002 89.500000000000014 1910.0000000000002 1705.0000000000002 106.50000000000001
decision_type=2 2 2 2 2 2 2
left_child=1 2 3 -1 5 -2 -7
right_child=4 -3 -4 -5 -6 6 -8
